0,156187950414359,0,00349292993955337,-0,134889075529027,-0,0567273834965129,-0,07531530972783,0,0735782322508876,0,0727349771301741,-0,16966332365031,0,101805704714581,-0,13901557974327,0,0749939214341043,0,0647620770022612,0,0776564632810482,0,0446172996836545,0,102878513938855,-0,017659493412986,0,120220362757467,0,145205887671495,0,00390296137914756,0,0830543310380668,-0,0184420220858834,-0,0870444018322816,0,163492564003275,-0,103006897798692,-0,142824752618581,0,0411154622881751,0,162828432731034,0,105816257957327,-0,0473399024645298,-0,0519939363227387,-0,101536893852236,-0,0397121532185995,0,0419440251892601,0,0164407773635078,-0,127930040775535,-0,0611583306652211,0,168739205249847,0,0561221250201325,0,162653560352393,-0,06467559105755,0,151474606778666,0,0483340128593537,0,152699364762895,0,138355396747302,-0,111842610179155,-0,107420482801197,-0,141597354821413,-0,145788103723658,0,00549237308667279,-0,162060769520059,-0,0581771949810281,-0,156525075203762,-0,0115229863392539,0,00997038494967003,0,0148044089710025,0,133651756619412,0,15471820607141,-0,128195281922176,-0,0818096575617269,-0,0146907919905322,0,10961707523434,-0,0303902127308638,-0,104290354720382,-0,132582020557569,0,0809236660160354,0,0760774625699265,0,157550338230345,0,0475524467340362,0,0470122328779444,0,124075614032211,-0,0170490651276172,0,0549451172294103,0,13317623368298,-0,0191034179496032,0,10501304323227,-0,166341253653017,0,141532175061081,-0,169406472774435,-0,0618655659475879,-0,0521011393315916,-0,085932916989932,0,152914304422346,-0,106295917935124,0,0372930708776663,-0,133873203161336,-0,0535744669804737,-0,129134027187425,0,103568243375883,-0,094882895402851,-0,162602953327028,0,0841422848407097,0,127488624907222,0,0704992269208809,-0,0766236355584812,0,0986335574748082,-0,0796585879209901,0,11325344920924,0,162451723060141,-0,134736109543749,-0,110384008530507,0,119452000830286,0,10328969905121,-0,070529241032424,0,157789783888791,-0,0282592770264555,-0,0500810408264322,0,145521528330602,-0,120428334791588,0,0828983716741512,-0,142020108631111,0,166019900987275,-0,0612410824121672,-0,0793174648288229,-0,16996496346072,0,160308100328139,-0,0714540230195344,0,0407669774582916,-0,0387750076348176,-0,103008171535566,-0,091486716391258,-0,143437300600807,0,0772829015844197,0,0323781158868545,-0,0811402555625212,-0,144408718631271,-0,00915279825062943,0,0217789582297342,-0,124803101943103,0,123884949592781,0,131619204255965,0,0478642167326588,-0,100742407566297,0,0825039082961531,0,118495856893966,0,0790173413669447,-0,107802927623464,-0,077776266787595,0,115597929807804,-0,00266479115878422,-0,0137040472335013,0,149661833498937,-0,156379373394126,0,068704167017166,-0,0130142219609405,0,0887031347102359,0,0461466100609979,0,0676446619695924,0,168388367812516,0,0105877389042971,-0,0871645837871808,-0,0144232109295299,-0,106839444763398,-0,00286358638938241,0,125723463608553,0,0998047894124427,0,14762147172906,-0,143069503237405,-0,0704031257024836,-0,144570798705188,-0,120861212406518,0,036913694360744,0,082147986079384,-0,0293137307789508,-0,0112244358121595,0,16622197512525,0,0585205193242652,0,0489904322578384,-0,0466512003857203,-0,170274799096462,-0,130930112342902,0,00868372067911203,-0,0360499915418352,0,11794306358464,0,0278780512777763,0,140876487259139,-0,0501176244566625,0,0974452559807087,0,131523277808481,-0,00943459375786292,-0,144439311250916,-0,110274552725985,0,013712165217273,-0,00481894139035686,-0,117751821027572,-0,146701101315181,-0,130612585887178,-0,017948399246709,0,0578784991322308,0,0333557408330577,0,0989902997050444,0,14269209545911,0,172221464573064,0,0547771472699244,0,0450208967680295,-0,083742182090175,-0,0363272698499221,-0,0634114024973689,0,163264051896728,0,0355394147135607,-0,159787875319376,-0,00328969466749053,-0,00380369635954704,0,135790813315598,0,0444157736730709,0,100156747218157,-0,108831527995654,0,156295832327926,-0,0352691487205802,0,0274223349371207,0,125382335160506,-0,153284596892089,0,0406323491788226,0,0612788384680717,0,037685401087273,-0,00636434496396895,-0,101765972601025,0,109123053126792,0,145975369538041,0,0693723940880228,-0,0215055313030071,-0,112783545084798,-0,110958933423045,0,0916805759878008,-0,154095787150249,-0,0907680791872488,-0,166851586848904,-0,118395559169415,0,0707185422799852,0,133227370280861,0,0345287681192815,-0,127902299628701,-0,082769744374033,-0,0383997144726757,0,0305935324039108,-0,169593930624079,-0,00258761490886523,-0,00868622692362389,0,0570300522370014,-0,0626430000902796,0,106459525328325,-0,123698842646737,-0,129157560841717,0,125407782882435,0,148013159409598,-0,0101721961489694,-0,0996225325310481,0,0957967220626313,-0,0868329854206168,-0,0977528115814377,-0,147984365296467,0,101584892920589,-0,0806724643251369,-0,0425829913550103,0,0028039682602747,-0,126987454109527,0,13308996794809,0,0365159872308472,0,113414289883475,-0,0887651870013849,-0,0129755541460551,0,1517442193647,0,054246962244733,-0,0684089500727193,-0,144977083696218,-0,0132701711242349,0,0523810552892169,0,11538215338175,0,128447289462972,0,128638597154415,0,143547539958785,0,0732452280485329,-0,154110266124173,0,119979427086333,0,120413782874793,-0,0982412888619769,-0,0929960747472261,-0,102043240322942,-0,0158348822022491,0,101443276783079,-0,0958488416393702,-0,132722992274694,-0,0783862657744171,-0,0109065979101833,0,130797703734928,0,0390354857576856,0,106778532313663,0,108868186253206,0,016874936120282,-0,0470591767828838,-0,156543338271327,0,0406099694177049,-0,143088564529302,-0,00559543605114987,-0,044869491572629,-0,158385559735986,-0,0887981031348,0,159729977719928,0,10579542009357,-0,0552632201605147,-0,0599465451770767,-0,0336837999006722,0,163073409787275,-0,0589824008778425,0,0412506754049791,0,167847116465077,0,0622442040985562,0,139313807919804,-0,0572804012114938,-0,146291016944173,-0,102072898240441,-0,0561898039944628,-0,0912916458642025,0,0785216906591619,-0,0895681104273262,0,0514805754738188,0,05527265284347,0,0341357558953545,0,130844237376287,0,00271315950196783,0,0343705298266629,0,164458573843734,0,0589457951190895,0,069821763632203,0,0534668515472163,-0,131157894180147,-0,12148556081488,0,100905755318804,0,0522201394113111,-0,0823948484272413,-0,164793976233962,-0,0850595890690503,0,123470264676068,0,0272211017744202,-0,0496284908584932,-0,145547186888758,0,0110067530234534,-0,145094867897727,0,131852200649762,-0,0639636760261021,-0,00504694149091608,0,0125638248684766,0,0705298868328016,0,0868855380113857,0,110878158147751,-0,00444108415804323,0,103364513882206,0,0550719742261254,0,00682607418999834,0,000545283273923697,0,135783392544572,0,0651969474113409,0,147781884745641,0,13772858743021,0,162403702713272,0,000338729909095805,-0,109696821165802,-0,119881049202609,0,149295943491272,-0,106422916235438,0,0623041867462905,0,14561705411115,-0,0182104847209425,-0,152955110745524,0,0058814075893075,-0,0873573903046219,-0,0459341073728548,0,0389002297263516,-0,154619646971754,-0,0880288354370457,-0,0873585146325128,-0,133211308811596,-0,127936190902542,0,138179912906918,0,065395327180634,0,0877134046478576,-0,151710385471725,0,152084884909733,-0,104487113788975,0,164679093195589,0,0933045593963741,0,148050330900931,-0,083538615845897,0,121006020658709,0,103391189784834,-0,0446592457917537,0,0140442225430575,0,118247143593305,0,0823662445783077,-0,0594660330885772,0,167871348486815,-0,120295743045693,0,101077347713126,-0,0805034377082641,-0,143914517960229,0,0476522009845325,-0,0623698263762625,-0,0508484070302824,0,108195474218125,0,148434417456474,-0,120387229925832,-0,0505206858393133,0,164959459983464,0,153047728059695,0,089049098806953,-0,0462819241674098,-0,0147719243452827,-0,0335337505715179,-0,144387234383382,-0,119707386334578,0,05695446328327,0,0930966600322502,-0,124267745494708,0,00875291249060359,-0,0549875143529432,-0,0652515359654511,0,093118119128291,-0,104608813017824,0,0338895303423992,0,0247981756887578,-0,039344395771362,0,123718868113557,0,0348312964761046,0,0692466969357822,0,142908816283521,0,146803136583369,0,0560452498821505,0,0304232689891586,-0,108402401846053,-0,16593739717789,0,0782974731961912,0,0779186301748464,-0,0487364565908953,-0,0126561284969312,0,0373938260405694,-0,0654331461542605,-0,139633275463017,-0,107309737631141,-0,0804341415328784,0,0887900764608579,-0,0681362059922482,0,112718744738514,0,0458065267854938,0,0228229314517602,0,0405460321937811,0,103891504602015,-0,112433156244609,0,127152155034083,0,0798759555981037,-0,0164744026167114,-0,149251121393022,-0,0782024670540076,0,0169661467767182,0,130149014988905,-0,0812644119998719,0,039350036538241,-0,132986434912967,0,152259685402528,-0,0759889603637593,-0,0393850278099545,0,069754347878503,-0,12130433620167,-0,150072440502781,-0,145559563064903,-0,0400970091278701,0,0730575159996368,-0,0574163122420418,-0,0517753673609217,0,0500654060155594,-0,0538187727014287,0,0467423506098572,0,088926561010515,-0,110694649259595,0,168512240257051,0,159837322773566,-0,13953352497384,0,14969399599301,-0,0594723733268625,-0,0961158551356277,0,134729409677404,0,00242256805004729,0,12910938638232,0,00716515175410011,0,126567048624716,0,0903530501663567,-0,107224998726772,-0,0415690695643228,-0,143621001547638,0,0702296232906076,-0,151513943587452,0,16133806787873,-0,112030010124772,0,0220948932738506,0,159619477110864,0,0594595619414109,0,0116034071925814,0,0320845444673552,0,0626830058620486,-0,156063431457304,0,0963748129497207,-0,165830862342761,0,0288031836271974,-0,0124986189717269,-0,138819606171594,0,149520904755021,-0,141139350406544,-0,0439041440599323,-0,126574584472791,-0,0936494511057421,0,156417117500158,0,108326037016754,-0,15171331419665,0,0856351928269795,0,137024462383489,0,0449667691243867,0,0550103766432945,-0,114954023240811,-0,00312994615000307,0,00477426613157385,-0,0930939773575779,-0,0209876647100533,0,0581484917164263,-0,150704333518041,-0,000243981874174463,-0,029826697338059,0,137564836407406,0,123679813115877,0,0398669150102174,-0,143677146304019,-0,0428074201231435,-0,131381022487476,0,138343250373307,0,154027542710794,-0,160748220220164,0,0543892727113476,-0,0552992155104171,-0,0640489973313255,-0,10834288234115,0,00032094024927186,-0,117512319433209,-0,170544610622744,-0,140896626443031,-0,0220190059073423,0,0388507317651444,0,142277195660886,0,16848026377531,-0,166891086266812,0,0237701169500732,-0,0495373288103799,0,0985322273324399,-0,0730608294845105,0,10431308241042,0,163932229189709,0,0846349591726156,0,108647385257935,0,0641961360355209,-0,0406257546104242,0,137412642827826,0,130805723243212,0,106313565303863,0,0713884914318896,0,0850847872813604,-0,133380900680997,-0,00990754168900003,0,038509104557397,0,148296678390821,-0,139073643898199,0,125380822684164,-0,0525863764497954,-0,15625503789633,-0,113272282444138,-0,0637818061318425,-0,0551758187137559,0,0548286001892788,0,142765834510821,0,14808726483916,0,000415272104034173,0,076883543095593,-0,144825806557106,-0,0176475983588637,-0,00344584358909315,0,0188863334830319,0,0748680916264323,-0,137005937476131,0,165922106478851,0,0885386664304273,-0,0200070371128587,-0,0919445029010418,0,011652554096928,0,0203062924899944,-0,039876729591214,-0,070238449998364,-0,15282962966749,0,105655169320723,-0,0978000085173506,-0,0424555803455742,0,0867151570335833,0,104015020844778,0,00275788229676521,0,153090544985711,-0,0216595616494807,-0,156519951962881,-0,141219549744904,0,0352141527629236,-0,146541840362921,0,151518599242249,-0,0876035222424396,-0,0518597427357232,-0,0037103824059208,-0,022095825123162,-0,0340563848320466,-0,00940129054012971,-0,103620615356299,0,101861369928019,-0,0328804247841462,0,0711430031040577,0,133923045913531,0,152941840541838,0,0805612563341234,0,033989085754152,-0,0928889953690381,0,0436508832944318,0,0505456342134561,0,0157227727954318,-0,168014785413463,-0,0553245169370445,-0,0237083984525284,-0,114966528843074,0,146843049889623,-0,0201472469968458,-0,0119107708608858,-0,0502875933532666,0,0506235388729464,0,142498916473583,0,0582814525886865,-0,0322592036365391,-0,170750860418142,0,043770999585334,0,0717049673807478,-0,0966215103334872,0,158222692360223,-0,0758131902666838,-0,0328121485767912,0,0371939165543262,0,0404358866824088,-0,125710827913001,0,0734156915167341,-0,000623443926484759,0,137798403115772,-0,0635241939962838,0,0918987205233372,0,0428402430467146,0,0379592998977734,0,0496171644344011,-0,0789016944802775,-0,153324455218471,-0,131647139187787,-0,122531615017192,0,0925429797019755,0,0184453597774039,-0,059584046410371,0,163251950886497,-0,0266500279295811,-0,112952848919558,0,122311332169639,-0,0246606791163752,-0,0315385016835897,-0,0447786524772566,0,0153325642804084,-0,136282092825557,-0,13024726513056,-0,00368217348505864,-0,0649530792746393,0,0964521997415688,0,0218396128820003,0,0918387020246332,-0,133857437689541,0,128096047286806,-0,140175645246237,-0,121497062018029,0,0476557295988138,0,0337370552859158,-0,132130916728384,-0,16519450620976,0,0348522319726984,0,0599529305347161,-0,135917028265111,0,0693947074194229,-0,0909478972322379,-0,00450237462910199,0,0365661718879763,-0,071877154109484,-0,144812282134419,-0,0359718423662395,0,10469943555295,0,0692341425820635,0,0261175091688488,0,0337280458489978,-0,0996481664441267,0,0321140850556518,-0,150210701865644,-0,113000663214548,0,151876844164339,0,162449771207851,0,140394332309619,0,0631237683770742,-0,0219324546063833,-0,0265461571031142,-0,125658462567253,0,166344526848935,0,140656706215302,0,0757629494489829,-0,0344162720928618,0,11060102264358,-0,170784836885483,0,0368129331172916,-0,168607297113066,-0,127380002907748,-0,00705109757784541,0,158194097686858,-0,13001376668227,-0,043465023208302,0,141375121997529,0,0590714946126898,0,0817079635245961,-0,155714663262979,0,0276831588782935,0,0708644260387287,-0,0761595046814215,-0,0344762314244134,-0,168157706984178,-0,0783382782287997,0,128641040139524,-0,136037656832968,0,0627428065102705,-0,108371939481948,0,00523558860974789,0,102077015994412,-0,156989375479377,-0,169950742155098,-0,0863339308444047,0,0646543365626919,0,115807096019414,-0,0509932178810541,-0,127186719687986,0,0539531567373621,0,000260978476000515,-0,0865414188552393,0,168128396777442,0,157497644752221,-0,00242901170485873,0,0741517807069543,-0,0128570347778002,0,0396084991823545,-0,0155314940704988,0,13248695362934,-0,142193778943615,-0,0307196347669112,0,163114861200718,0,142902677328629,-0,0498146617569945,-0,0898926410105746,0,106105377817669,-0,162274967318408,-0,14359332231816,-0,0134629672833874,-0,0413727215348114,0,121151055487216,-0,00792465137625747,0,0946607683150742,-0,0507820954035763,-0,0924730795564728,0,101434255995008,-0,0358743044855231,0,129765149537777,0,111199995257217,0,0975064768458321,-0,00683352544794685,-0,0610889850366665,-0,0334778028138611,0,169518724876301,-0,0406074151265928,0,165409797929566,-0,129911338512891,0,0251538604409121,0,132060115125915,-0,0790073395116045,-0,15583056938972,0,145921130896644,-0,163861396981958,-0,03890796151721,-0,0520366061495687,-0,162009834903174,-0,168783153598522,0,105481777059732,-0,0390646441850967,-0,148304344412389,0,155313140835484,-0,09672726133428,-0,137838224483273,-0,00918684377987773,0,0188153388079016,-0,117034957234899,0,126684502889124,0,033579221455999,-0,128354297492631,0,0729379242665432,0,121026135296308,-0,0684898905436256,-0,128287968717981,-0,0657941420766025,-0,0242685406401434,-0,0774493752189055,-0,0966164505868183,0,0663014309352403,0,0164298187973466,0,150013285150673,0,0176147671558918,-0,00576999129220487,0,0756497599194565,-0,105018956689167,-0,0367828127319372,0,0782798134636359,-0,0656899436757099,-0,0468702473134941,0,118810922233527,-0,0150937209747787,0,0240725393992833,0,0858094647161583,-0,0918341795124601,-0,125860983930646,0,0340498685310978,0,103603870230103,0,0399870279081892,-0,0696360156748998,0,152017638359055,0,0196482939310271,-0,0319394322698884,-0,0700605371423319,-0,0248800691420985,-0,0048765483658158,0,06694432396674,0,118469384069078,-0,0344277253609645,0,0746736859579007,-0,0929713921331432,0,139455874866715,0,0891227264571245,-0,0486603350565755,0,00788841869609363,0,00541937190019976,0,0622429804722306,-0,0945521106655294,-0,117427018411381,0,0488262165367005,-0,124966727282919,-0,0146063052720302,0,102181716589145,0,0446775283131645,0,126601204053473,0,0108092537834803,0,042016728698072,0,0975747030714578,0,167719029470421,0,0524639823229096,-0,155549556238083,0,0903873500021832,-0,139425476454787,0,00505963943805843,0,0875552532724435,-0,098172181395251,-0,048258126440259,0,0721849883960699,-0,0576380151856257,-0,105779933622306,0,0273483443524529,-0,030470982266208,-0,163040710222431,0,00478924800260902,-0,0614345491799334,-0,160590420690882,-0,024502550497938,0,0784493879031572,0,0291086616310319,-0,0712979659412734,0,0521925512208092,0,132183277077509,0,0275878574297609,0,117537796985745,0,0354677826066676,-0,153068712891161,-0,0699993203288302,-0,0631199862717142,0,0422336324460719,0,147498585404104,0,0214015075628857,0,125920776559754,-0,160831451073858,0,078722845499146,-0,0761484016579617,-0,0203936363885603,-0,0181846293103608,-0,0949904038333227,0,0606314475715357,0,124977146880482,-0,101658276581066,-0,062287758516058,0,0681236961592862,-0,16236452461366,0,0549779614724584,-0,0444547129838467,-0,0407585495070419,-0,0538914969125375,0,125171881658063,-0,0666444121247069,-0,154486657932582,-0,0777384619043537,-0,0753015598531789,-0,106541675152878,0,108209553194556,-0,132947778691076,-0,16760549975552,0,0768879435900294,0,0930211356947034,-0,0275595725229565,0,000455931215115355,0,0784416012272496,0,110116332782471,0,0593065963015323,0,0148883688660638,-0,125136225179444,-0,0470951781630224,0,0302237602387426,0,0569674727655115,0,133197729856299,0,161102991158743,-0,00345437696077082,0,0428284538671201,-0,0354820679701444,-0,0262115132861346,-0,111630339610065,0,0815895168413987,0,147122480959491,-0,154640440020817,0,0199824866145257,0,101793833226026,0,00718567984519421,0,0455219441360593,0,0231968418445345,-0,0553476423525907,-0,0111461471577568,0,130733281045325,0,102950110758705,-0,114477451991084,0,142338233274321,-0,089610428866022,-0,0625987899892291,0,108350536493281,0,132215417125172,0,016363125189049,-0,107577282086936,0,0805992115950922,0,0557343779728429,-0,164477382412052,0,151702149982338,-0,13139638670794,4,9733159131803E-05,0,129459817609256,0,0245645257518119,0,0138657946410746,0,141586163152154,-0,0637884524755117,-0,160170719672931,0,0712836038597669,0,163923750756557,0,146995787867973,0,123231426019064,-0,157789167158147,-0,126241791519092,-0,0612162556400729,-0,0110476148136741,-0,155072674944695,0,0582817590097689,0,0763177022499292,0,0466080064590905,0,0486581630354906,-0,0490005854289359,-0,155144851481908,0,112544393131919,-0,0709873285368705,-0,0873513003677825,0,0276005944482104,0,0346841738835275,0,0304012749537609,0,0786511124463127,0,0297044658156738,0,133794961735506,-0,118545092459095,0,127907379464729,-0,116421089666943,-0,119650990299541,-0,105313004154047,0,155633150808928,0,144924341800169,0,00631074590437563,0,137623936191736,0,0378052840458941,-0,144914071365879,-0,04183130642484,0,123374334172709,-0,0249681477292916,-0,106700033991441,-0,00235256140012768,-0,052112853197944,0,108429488522082,0,163541876500885,-0,0499893191399535,-0,129668053169659,-0,122646044138355,0,00764451674484863,-0,0374149433743981,-0,104396514196059,0,0634569009345512,0,0465981562930375,-0,00460434709759769,0,0740605622276929,0,0336472660998948,-0,0545751672257503,0,128894825756672,-0,145324739505338,0,152205919316645,0,15774960238538,0,0957580477272726,0,067825814031792,0,0577728167081751,-0,106074840231865,0,0717512665997892,-0,075663604462668,0,126664055778437,0,149193681818594,-0,111931694947867,-0,0516060130484841,0,0401226174859564,-0,141283706994933,0,0455665202178524,0,1603922769117,-0,101279890806574,-0,15196374041889,-0,097093927516552,-0,0367347390230127,-0,114399551417871,0,105023898488962,-0,129521797555588,-0,0352452053722757,0,0980347930078453,-0,106505748169185,-0,169739795592074,-0,163826097709579,0,0719274672940933,0,00962075504363125,0,0509564447607258,0,169316646812065,-0,00745897552653896,-0,157645955299821,-0,00474735454019527,-0,0918294998636376,-0,0462446052962358,-0,0134836870534553,0,122692596874004,0,0599616577630872,-0,0351969182887982,-0,00591906883534882,-0,109243577073573,-0,0998587758027374,-0,03380641857245,-0,0669486329656274,-0,0877040168242195,0,0157441568456645,0,0412977557738784,-0,134523462537776,-0,112435119689578,-0,0997256244701564,-0,158748554081055,0,0225620158268596,0,112971567469925,0,129976954879565,-0,147355577349143,0,0896677653805873,-0,112831638489206,0,17093347395404,0,072889901117665,0,156713801229859,0,172643504630616,0,0221427035583517,-0,11688000576569,-0,0128822374950407,-0,0746687239611178,0,0277576881042038,0,0402986617073729,-0,0827743619089874,-0,133241495753512,-0,0743282565752126,0,0840558347605801,0,0430132319014307,0,031875782339983,-0,0935882383490194,-0,0158271282505785,-0,0852552718349899,0,10704970706262,0,147324097407202,0,100696576227816,0,162025635845755,0,107125512954336,0,0199192658243564,0,0428095903094112,0,0689435297995684,0,0483912603100179,0,0237833034988519,0,135697707688857,0,0453598091728587,0,0293307894085612,-0,0276050696220472,0,0150360684845639,-0,0689123985130105,-0,0843711955828837,0,080737956177655,0,169108083634985,0,088788288784859,-0,0649622354347251,-0,0193372981547816,0,0124529741855226,-0,166137538905121,-0,0576851286491967,-0,105508348467971,0,0561387150476359,0,0100391896769156,-0,0788400900508694,0,0707001386609145,-0,00159746556608044,0,0887833191779135,-0,125794058170329,0,144091863038408,0,0372295337368691,-0,0373859065343603,0,143058825503148,0,00120220848885003,-0,0845237776133662,-0,0634817324625076,-0,0974359287386386,0,0329886532523022,-0,160197151505515,0,0571997296108019,0,0417104943096744,-0,12260340705881,-0,0793730085561875,-0,125226104761581,0,082920801688927,0,0511692287759846,-0,0837451516588144,0,154904477854429,-0,122865688425716,-0,0881278068847348,-0,168341125881073,-0,0352313964977937,-0,149691875875509,-0,143581248137323,0,0155050744773474,-0,00303747242015994,-0,0142883611420155,-0,0193847843134757,0,0470748727235889,0,147830615385461,-0,158842082232845,-0,130951705910536,-0,134232851446133,0,0870894471148646,-0,0255047680922284,0,0986396124339696,-0,0690075776550434,0,0600276481230143,-0,0104229195211734,-0,158179645057931,0,0864081672410486,0,0865672970495403,0,00526100082147323,-0,015053381037848,-0,0177634635885304,-0,0162192996420588,-0,162172718920686,-0,00526314314217667,-0,0435628760654717,0,100915974517135,0,121900935161784,0,0129583912353481,-0,0304858077609188,0,108320050734573,0,0421214805480446,0,100766329254532,-0,133957262006052,-0,156826795862321,0,0491471723292191,0,0608212765308044,0,037933585698004,-0,0593135696678238,-0,0373718749255043,0,0887971857011343,-0,0998731143611934,0,0319691460301776,-0,0613548562091766,-0,116231892029306,0,0410091732131886,0,17116103579858,0,110817118338703,0,138413219992194,0,000456381802155672,0,149446375587652,-0,0444370020287865,-0,0949470889048764,-0,158582253474204,0,0730298202308663,0,167837807803194,-0,0247069562145664,-0,119959151042414,-0,0862727584762002,-0,0505009998865728,-0,139052401376888,-0,155881647770626,0,0957978185456737,0,165712460363926,0,132559954247257,0,137960647387197,-0,0196335867590642,0,0450498641076915,0,0863742031352236,-0,115948065376444,-0,0047305796549931,-0,127661331472803,0,0439878701092779,-0,056926737477403,0,094697376511516,0,0452134678576097,0,040290810867765,-0,0103316026381741,0,0109583516807713,0,0703906641780942,0,121912186132493,0,0311511460884214,0,0962273278615125,0,170282852134999,-0,0138193140000698,-0,0756191519883245,0,0687115199776071,0,0543339218082251,0,142975380742741,-0,125071811739226,0,0667193985201004,-0,0068082012853747,0,10851046189068,-0,0349821183578554,0,163753876692703,0,0914682802574571,0,00235642847237596,0,0702068493556165,-0,0328345905968093,-0,0979017886891874,-0,170668763517883,0,0603298167238985,-0,0259227185795615,0,0872760263878373,-0,000365406962969386,-0,0364406318398474,0,160516109080896,0,0341275218432695,0,0166331294794351,-0,104679093467517,0,0295483596788244,0,126956781552328,-0,156721659003948,-0,0354859696390705,0,0605519981037015,0,0266039667772068,-0,106858440154568,0,141103341675723,0,100938065406664,0,0864887080735685,-0,0550958331608569,0,0937869965580364,-0,0530519233230671,0,123680612437466,-0,144997375607883,0,0112050605424724,0,164898499667659,0,0852445952005733,0,0981399981246997,-0,118300595074637,0,0594404861684803,-0,161440827813648,0,0644059200088433,-0,170656542196093,-0,117781370966299,0,121628050324107,-0,064114689370235,-0,0619285654362485,0,136139775555683,0,0370992358046318,-0,0117648926990082,-0,151949224112988,-0,0647306185669336,0,0999734342681802,-0,0100889508001637,0,016810116606184,-0,126364887841422,-0,135663564280501,-0,154624895230912,-0,0944340149277344,0,149702513801416,-0,0215874172885465,0,0161025138132124,-0,146025826058456,0,136300501660129,-0,0740649863649213,0,0724202250987086,0,0284617977805432,-0,0720325938877946,0,013368319890826,-0,129649564415469,0,130472056872195,0,109553790096069,-0,141945192070685,0,0209443360480059,0,158300053911978,0,161452326046188,0,154953614107661,-0,139672618755583,-0,150652059731484,-0,134738885044538,-0,0290409037122042,-0,137472952201623,-0,0844076876319397,0,019952378308332,0,0631781845783187,-0,0711203562088686,-0,138809722831732,0,0509277528190081,-0,0737382116447137,-0,0765466350533907,0,130755230425052,0,0152710712273174,0,119795967117276,0,107791551032119,0,0972350081125801,-0,0207968408211834,-0,156833641815739,-0,0109863882288303,0,17154484545788,0,0175102862576379,-0,162882447418462,-0,049380855587921,0,0441192121771969,-0,0439358894875455,0,102103683656111,-0,125650263547205,-0,13763394496413,-0,157993946347827,0,10720390197717,0,0858930963198903,-0,0385071840028371,-0,0351211280808251,0,052136507703134,-0,00508986667163146,0,0257930114085453,-0,0312508893613443,0,127156842795952,-0,0867638392961321,-0,100810911027212,-0,112533339256446,-0,16836295038816,0,0385286139199293,-0,0651054050029318,-0,080707170959737,-0,0594155384942736,-0,0792813652354191,0,0509985220706814,0,127978589089772,0,0231069129561422,-0,0284649665595589,-0,104103014841509,-0,117298765290275,0,100580527382035,-0,129729140883233,0,136789206119991,-0,131466590762785,0,171147664601738,0,158100810280301,-0,107807838496768,0,147341181415677,0,122207584217386,0,00192013646056814,0,015084556371863,-0,0844653022289071,-0,00764195790812911,-0,0447982385841039,0,11174452260688,0,0442045559268979,-0,125355095267728,-0,0879561991480007,0,102492609780512,-0,0343769395531556,-0,0325827799362634,-0,0366289065338631,0,155823522320923,-0,0235495632844108,0,01275560507441,0,0797420862431202,-0,00757782990323275,-0,0456208628105434,0,0492541052635623,-0,132461887768569,-0,117414010070687,-0,0760683286184626,-0,140073933913067,-0,123116488270481,0,0721569942749901,0,0439203463263669,-0,0674356945134796,-0,167964361297885,0,119530276268008,0,113132409717697,0,106617505532589,-0,0869984604195799,0,00260572424515735,0,170319418044867,0,128018118660056,0,0523626621618962,-0,152528866974783,0,000496670825756111,-0,00335942275914342,-0,116065257092822,0,163310145236207,0,165913089080018,-0,0445464719209057,0,108149110389044,-0,141018636604753,-0,0338457359201608,-0,0347717646879182,0,064353606148363,-0,036139069884233,-0,121273292116743,-0,0440471901087972,-0,08176874364121,0,00764313705474665,0,0615205719917292,0,107907660486524,-0,111694995518829,0,0262525299299146,-0,0345605881386947,0,109936307639835,0,131289941991752,-0,169640769394084,0,0829900568837999,-0,0887560316720309,-0,0696457774914481,0,00633254572187515,0,137478008866452,0,168308161417167,0,138555808303608,-0,00121067093131985,-0,0710680367726339,-0,168887463733696,0,111327528027111,-0,135850535061952,0,109147784678418,0,163861613965993,-0,0255614239004172,-0,120617885985272,0,137018070285379,-0,118997373655622,0,116101065899402,0,0132745998657237,0,0132685249369686,0,105269376779676,0,0301864022307398,0,0891263193305058,0,0899238117917109,-0,0367750805573549,0,110578752516306,-0,163088290105508,0,0451412853999689,0,106490186076801,-0,0967366014180824,0,101644065265162,-0,0692431175904507,-0,034317221487536,0,162167445280045,-0,047654863587576,0,00307562206446208,0,00988826885898801,0,104463424732489,0,0710757553229652,-0,136812167384092,0,0784818727482376,-0,149376852104971,0,155348842271131,0,152073940399532,-0,109762613612114,0,158508171237385,-0,0197844661380686,0,171003382558837,0,0743629479206626,0,10302438664448,0,111718502607322,-0,0695138593288548,-0,132160492391208,-0,121207136865388,-0,0273263510318258,0,0651712881513558,0,0321300262333511,0,162687964765554,-0,0142781299704759,0,0585565414426863,-0,0398951464000004,-0,0120478829751686,0,124131135478455,0,150296190116904,0,0755565573215536,0,0920021081032662,0,0492390643715132,0,15720377912213,-0,0266053621453051,0,0127439758755879,-0,165305853213996,-0,148877909684726,-0,0447565762464971,-0,0769646473982425,-0,0976856355822286,0,137314702098576,0,0436384024266322,-0,135976037820697,0,00877845504511036,0,0766578703476901,0,10597768470729,-0,0115396593053506,0,0319986874148006,0,0262790856225662,0,126321492602481,-0,158444239383874,-0,151563110833916,0,140232537447589,-0,021457774637141,-0,0198599234867284,-0,140827256828429,-0,0791482120661984,-0,0865266672086818,-0,159395434669529,0,0273992578831141,0,0447476387317612,0,151725757077894,-0,00203338966892355,-0,0448894522715581,-0,0601059421497037,0,118049077981787,-0,0642327577247006,0,0253020305544679,0,0615680089362305,0,134564175102661,0,170656367837119,0,0618754193195225,0,0561987829482246,0,00722062118968251,-0,0440097518155166,-0,117632025718961,0,0301867209606483,-0,163598409953357,0,0886225298300178,0,161843006557245,0,0997492891641909,-0,0211933802364838,0,0215381149129312,0,056042666745449,0,0201636359561074,0,0929944920751458,0,0812425704294101,0,127882369165658,0,163612519188842,-0,0785964673159409,0,123193224218416,0,139203223487215,0,0666786494883415,-0,074186038573115,0,170687418959906,-0,0697085633953952,0,050634064260965,-0,03761410641355,-0,0583404076514759,0,141586444158724,0,00218944881731764,0,0566941908803736,0,09064315302789,-0,159727528670304,0,146810243078959,0,0924009837722646,-0,0443392108752281,-0,0489046245433448,0,138322523085519,-0,129000053579797,-0,0228124237251215,0,0378719871930058,0,114680955323243,-0,0848534413616672,-0,0380216102678311,-0,133313497842311,0,0353865455908959,0,167115516150162,0,150253161837253,-0,106692268985639,-0,0148184631763115,-0,0703715174144044,-0,14449863461532,0,14838773672323,-0,0115522396600559,0,0136299291660225,-0,131718610698068,0,12600166712945,-0,160073741485504,0,0692268659948115,0,0560517126613115,0,144946453403896,-0,135542190136106,-0,096829492019679,-0,0630257773231209,-0,0108903615411341,-0,160032701679807,0,0227077379841092,0,00632410813063323,0,140541592794776,-0,0524425928053076,-0,132571841891104,0,116197297379244,0,08341883485087,-0,0791352586763395,0,0108266551129022,-0,0634866954366363,0,0684205583917168,-0,0303147740221542,0,0871216406813992,-0,101935037818228,0,081945150938133,-0,0765970409053962,0,165841387384647,-0,0963668385917064,0,0138130379590854,-0,0342393510535164,-0,123518613232492,-0,0245332842613101,0,0127144442159735,0,019995664380475,-0,156869248079436,-0,0952460201166172,-0,0208796860055739,-0,0291976168917762,0,101603427085146,-0,132042157577462,0,0770005598697076,0,15645677413505,-0,0917110148179694,-0,0702478521145296,0,0427741647833794,0,106841375442837,-0,0425006037734393,0,148560356261746,-0,0196710291039325,-0,136030905338675,0,0364594370288037,-0,0355987400496498,0,0481493161640176,0,0654768898005576,0,115346257509768,0,0858710649683251,0,0190559066161372,0,1193503965902,0,0134826823529285,-0,0713650681320804,-0,112335789132962,0,0357831642121519,0,0849312174888117,0,00657090400971562,0,0827377323811471,0,0441641967629141,-0,0591121844827608,-0,119122877859903,0,0792569102672112,-0,0922230359953949,0,0455845808803093,-0,0795367088900024,0,119821988559385,0,0967021539110711,0,0147447961969984,0,156101535138731,0,0302809904519894,0,0620816232590505,0,125387776052704,-0,0980468192806445,-0,131032550950701,0,061390669135858,0,103544896970392,0,0892867690462014,0,165667366874127,0,0330256193561816,0,0392102899953643,-0,0414823752307807,-0,166951327448155,0,112966168177742,-0,0840346250568018,0,0497386478902564,-0,0487787435984269,-0,00133847238362913,0,0320713097545044,0,0265270254916171,-0,00525702567388764,-0,0615645540262327,0,128917159527252,0,0197354367451095,-0,0849930857008894,-0,0552012922761621,0,16138166907653,0,122340299162352,0,156849234578228,-0,0990016895076025,-0,0198129372054192,-0,0498761204972887,-0,0635075836929442,-0,112749726283942,-0,120775212730212,-0,0506981591360632,-0,104860183101735,-0,100573087450359,0,159725520617597,-0,0354059450088975,0,0587451148350994,-0,0047604091395629,-0,0619872282146452,-0,110669922380576,-0,0448250848091575,-0,0660967437088742,-0,155323389144937,-0,0646121593089835,-0,021260419911356,0,00799039066285479,-0,133671759541342,0,0537716509928744,-0,0464256576872024,-0,0250186285283848,-0,137511276373756,0,0995132750111407,-0,0972446698533744,-0,0602933183962851,0,0228034015850491,0,155812933635956,0,0817889817088023,-0,0765639460369413,0,00514170790005392,0,167474402963416,0,110749432473364,0,141996413214418,0,0142225597074058,0,0113683516022266,-0,080707111700919,0,047722300755575,-0,141107754318469,-0,0977534980571634,-0,030145251916261,0,0255665745099365,0,0859650095841066,0,168114822932523,-0,104862587425294,-0,000386083401018412,0,0845362165760708,-0,114271033064674,0,158748687883109,0,0275030890449436,0,090637453547988,0,0680071488117233,-0,16346619710997,0,137503912618626,0,107686708786591,-0,0618745995754475,0,0628377485371328,0,134660998627333,-0,00933612485166759,-0,113828137755357,-0,0473819605037279,0,00657077333742301,-0,0163771887138214,-0,0751048908250602,-0,0172566700132837,0,0612013705608568,0,0473192955424502,0,0511421487397396,-0,0956691212566991,0,0220534974751062,-0,0062787848355244,0,0279941912124474,0,0907482692549117,0,0755173080070266,0,0890792630795645,-0,10113776136659,-0,0716314565158377,-0,0234505297313136,0,0239986057798157,-0,057708381690802,-0,135149952827562,0,0473391657677057,-0,0891518881073402,0,105649286499482,0,150197618057417,0,0775353227368539,-0,090917990352197,0,0326854172017389,0,0844911209018854,0,0942765920510729,-0,11785047981938,-0,0210309048434138,0,021172081496899,0,0148087121252017,-0,0672154227007155,0,134649808499125,0,120524459636884,-0,0657776396428662,0,0878850758031877,-0,120815345513759,0,0393666856620006,-0,0562712459187128,0,163017781846385,0,0832287190195947,0,162729345708292,-0,101814479946513,0,158115789178382,0,0994456531440933,-0,0137281420402637,-0,0223781973222262,-0,167747666991086,0,0585195039067525,-0,0977631766133705,-0,077159688448457,-0,00561137174646709,0,0254146349394205,0,00553618427416719,0,0939571902002049,-0,0150108654326406,-0,114688809612949,-0,169796937330428,-0,0116541566728679,-0,0784322263480029,-0,163330153169878,-0,0656684550426585,-0,0463938474668252,-0,0553662171543356,0,0870071014880176,-0,0545175428843705,-0,0361660082923364,-0,0268375023461228,-0,116006264621062,-0,129274228531363,0,15090279621068,-0,156499723915896,0,158802450812356,0,13621473183603,-0,116408268622973,0,0917906459471791,0,0235586699831065,-0,0915001386223867,-0,0930052380368984,0,0834291227593032,0,137802984961964,-0,0338408864646845,0,0346601135167814,0,138366644197277,-0,0857197578969783,0,1397367200317,0,0966831053389018,0,0803262819708175,0,0413953605809579,0,155156600295676,-0,0966950431067666,-0,0302540309530736,0,108312299040849,-0,140729900901995,-0,1165804559337,0,132894402222327,0,0289583667667446,-0,121904377799903,-0,152189007710636,-0,154649897257437,0,0540541971684813,0,107242253789256,-0,0692740964159124,0,132649205028872,-0,132705514160336,-0,0215265980860636,-0,00735226400198726,-0,143814054074742,0,122506862265557,0,150262382350471,-0,115508580337907,0,145260648673516,-0,143082445997273,-0,14949460693786,0,091002941453058,0,0803579207456872,0,0960379686978812,0,0479882962369838,0,010694322141212,-0,00157928328483638,-0,0737371771868505,0,0782412335802942,-0,0594226390215333,-0,0182037731956352,-0,0637691601626185,0,128800990557201,-0,116624706957254,0,071860154116832,0,00666936344055076,0,0172129992742999,0,0311655722512445,-0,0164225300559227,0,0110634088920762,-0,00481358118692746,0,033439172999243,-0,0239667250596514,-0,00658720608664466,0,0290257577058386,-0,0136011436757132,-0,000711079506726146,0,00323102292789395,-0,0238247967327099,0,0112561200648572,0,00684646474745115,0,0191069550690965,0,0158725798432538,-0,0096401055268915,0,0226441942772047,0,0115351907058429,0,0136079638281265,0,0248004737875222,0,00953389224334712,-0,0154916486960103,0,00662141106135261,0,025581132262278,0,00877749705062399,0,00710488395956475,0,00962748850495892,-0,0211091812549875,-0,00176453486109669,0,0137398646011134,-0,00577026946592293,0,0100577032509811,0,00279163704392344,0,0425473782560464,0,00362034734099248,0,0133567376543766,0,0228542626581078,-0,0167126816063959,0,0236766545962022,0,0283361936908605,0,0129773965392191,-0,0181624128943393,-0,00252956328567886,0,00206466751401299,-0,00369306693347676,-0,000270323707614895,0,0200291024890831,-0,015264975588136,-0,00924911999731159,-0,0196110937532154,-0,0192207648345794,-0,0328437482907239,-0,0191644275800108,0,0131895308210671,0,0315369542370987,-0,0205286186675836,0,0110061239809677,0,0115175670895681,0,00429797448252899,0,0176921716001597,0,00861530351977714,-0,00498107294682864,0,00458091315910203,0,0166397801859915,-0,0271294511642453,0,0345882256230553,0,00224770934369135,0,0136608520437877,-0,00780828915248515,0,0284633084123356,-0,0161409225580032,-0,0195936636472968,0,0252255303465081,0,0090054658930143,0,0137346835330503,0,00649532772224629,-0,0219510251192411,0,0171409033744167,-0,0152470278220992,0,00142723594541768,0,0153430449209794,0,000730693437128885,0,00616531947311175,-0,00586023665123235,-0,0114320794040103,0,003544633931547,0,00267299338817163,-0,0130885316639372,0,00160262138781526,-0,00354466884692061,-0,0050818349998167,0,0179326242771534,0,00649206981513035,0,0194642624708496,0,0198599510533069,0,0218342444222253,7,44997988643887E-05,-0,0269020713085287,0,0411808929796715,0,0101102881270206,-0,0268349092638129,0,00510609545685937,0,0386758621830488,-0,0125651748266005,-0,00996367960920884,0,018599639239636,-0,00611451053435259,-0,00618337825882107,0,0347568978695932,-0,0127720812041823,0,0181003013382324,0,000504240901503932,0,00320469469530298,-0,0319147819809888,-0,0189231676654224,0,0298256982398401,-0,0164047457269228,0,00170975685234298,-0,00116455170098899,-0,0101952997021045,-0,0105578394464257,0,0188184717581529,0,001952623666975,0,0336066118250122,-0,0137878074979946,-0,0673341147100016,-0,00273068590217588,0,00446360800873106,0,0142103762531421,-0,00187854462286941,0,00638974845559882,0,0147496804938612,0,0146672352176963,-0,00412893812367838,0,012551287806512,0,0170864717155349,-0,0169214615259629,-0,016043699316842,0,0127561668606159,-0,0143422436033692,0,0154988263905408,0,015356049813315,-0,00563617349697383,-0,00159613308517295,0,00969496485625927,0,0070490548020265,0,0161299905892945,0,0112652776008271,-0,00172046232449711,0,00131543210435357,-0,00269068488000101,-0,0112730320381482,-8,92195089992452E-05,-0,00413010219129752,-0,00983424743244917,-0,0185502387752718,0,015643767794176,0,0047181726458858,-0,00240923158686267,0,00464298666830512,-0,0114790493833563,-0,0131888496751978,-0,00436535262142237,0,0102481587462606,0,00674664873743064,0,0168275901552889,-0,00526280084788911,-0,00425368470765994,-0,0115526582873958,0,00333313782701505,0,0112122307288007,0,013079949041434,0,000859205956659237,0,0139097841237092,0,00415986679118716,-0,0120211963647351,-0,011581621885241,-0,0120071839591604,-0,0178496313028064,-0,0171250689913888,0,00014541068430775,0,00596280699071167,-0,00708284233857405,-0,014043187612886,-0,00174103063235442,-0,00857385566030104,0,0034231467931193,-0,00110335326903658,-0,00152163893128801,0,00354704765264382,-0,015905877320031,-0,0112168886145786,0,00101854393324679,0,0064583102128819,0,0107216960249114,0,0171984452110257,0,0106413116225559,-0,0164843793506973,-0,000516592040963168,-0,0137294418734578,0,0158137457265727,-0,0002744081516722,0,0133442147459297,-0,0100293480271946,-0,00421168870741851,-0,0169009799286093,0,0157635233687465,0,00214113810841376,0,00616865088414347,-0,00871876825715663,0,000174289063314706,0,0135536629463383,0,00255516595807135,-0,00343655872441263,-0,0162958667893864,-0,00995025955169959,-0,00833688780969696,-0,000589412167480601,0,0128918784705665,-0,0172253287617084,0,00119877126371295,0,0137961241707965,-8,5507570059673E-05,-0,0183907418474601,-0,00938401135319908,0,00898168925582215,0,00609055481068838,-0,00876864740949046,0,00254344170326282,-0,0123479508710325,-0,0115100098602475,-0,00977395842963923,0,0138330516313004,0,00708704106259358,-0,00881130203042106,0,0169998455449906,0,018563230965594,-0,000278743156976345,0,00790150686583732,0,00755188775691094,0,00350639711184013,-0,0138803927582924,0,0162737246724875,0,0184531186253543,-0,0073264188120099,0,00643887381749079,0,0149546210118905,-0,0146479469975794,0,00585894109664522,0,010883763333041,-0,0129375647458813,-0,00465062154465413,-0,00276079686921061,0,0125529986616877,0,0117926062477278,-0,000374097225338514,0,00681992803572339,0,00585578157519145,0,0163641412222981,0,0127614423629492,-0,015230215471931,0,0137255289347255,-0,00821007406962683,-0,00149221693919456,-0,0176477587486535,-0,00274919846899887,-6,56971748400907E-05,0,00905701112216431,-3,68510969487629E-05,0,0131723138100537,0,00602263829443195,-0,0167877165679764,-0,0140575040215787,0,0107388973759732,0,00646058467788633,0,0120437201177485,0,00860516176431451,0,00930951367723919,0,00325271198360317,0,0100672401104054,0,0131535495024286,0,00922577357339558,-0,0065700379379552,0,0123093271434807,-0,0110687388641766,0,00525757821447942,0,0153505896378899,0,00264770027408242,-0,00263859684981967,-0,0132104990304531,0,0177838763370154,0,0163364865705707,0,0175498951040346,-0,00849550369142655,-0,00572961085866302,0,0042767870396445,-0,00998424236175165,0,00810896247828282,0,00827950709399829,-0,0144005603072725,-0,00928417040620632,0,0182020410729613,0,00752812061775999,0,00718726303379902,0,00444212261033193,-0,00658796375889665,-0,0098416097706112,0,00822746494006943,-0,0121047149521122,-0,000734295021328172,0,00205785549141441,0,0119435102525951,0,0187662448650941,0,016787983413892,-0,00725249085983794,0,00159390332041402,-0,00469807977519443,-0,00924802906579523,0,0167478707142529,-0,00623255723274768,0,0136439488132583,-0,00282089164823366,0,0117933893695584,0,00768960356537741,-0,0150872938652533,-0,0161210518273941,-0,00184505529651274,-0,000516383181831244,0,00312489628101558,0,0119452580744353,-0,00111240699733512,-0,00869666419249244,-0,014702059540727,0,00253896119966356,0,00854848844014771,0,00993062980691885,0,013880019938929,0,00707535383343321,0,00479628057203739,-0,0123156837329283,0,0186687437039719,0,00773670268652332,-0,00951292540704088,0,0103725392814859,0,0101471614427042,0,00410778273596189,0,0111246033006506,0,0185211827243083,-0,01223600192147,0,00911155486884077,0,00191577562520019,-0,0121085777095286,-0,00771103313329668,0,00848360951806092,-0,00442822599695924,0,00188061017694228,-0,00766517965833596,0,0182993558325338,0,00504616517367354,-0,00145900863564299,-0,0135682160945138,-0,00997525299122051,0,00238483408494605,0,000914498353842864,0,00656902568136699,0,00995370651182829,-0,0159136611516089,0,0129841885294951,0,00723020288187402,-0,00124177577682763,-0,0155818692604184,0,00768263165881608,-0,000693354619094577,-0,0183847272628296,0,000202264850318731,-0,0179780395804995,0,0015922527548216,-0,014181148264749,0,00640042552927664,-0,0140196465608254,0,00838349130071769,0,00709648283594665,-0,00936443239341911,0,0139080321383318,-0,0158441412084591,-0,00950535255274414,0,0191848340986926,0,00136901663527027,0,0123717364053887,0,0103803317653513,0,00887255914160012,0,00223022271280775,0,00699994609057704,0,011765923429072,-0,0123151501365982,-0,00682736330945562,0,00859792934108785,0,00596677737481289,-0,0077554245464752,0,0161398935968419,-0,00580880376051691,0,00163529127656469,0,00961445045108657,0,0100656379505842,0,00355418860995548,0,00608850193766021,-0,00231320887612644,0,00536923283822501,0,0105234916193799,-0,0184093126890936,0,0127514807219327,-0,0173672073197136,0,0143339129887332,-0,0170217009694404,0,00802393351467786,0,0148235277723658,0,00442670749519034,-0,006100408670976,-0,00957044553582091,-0,0155653986597121,-0,000883213283484416,-0,00576501241692883,-0,00715612972765907,-0,0168809991770249,0,00305248675104385,-0,00103490425963124,0,0172852606740363,-0,0133218143855065,-0,0175302572565302,0,000284810530387331,-0,0167504570576958,-0,000516570018305399,-0,0114555331236124,-0,00683561864594937,-0,00833595945484465,0,00782415298965209,-0,0102444141725376,-0,0052092977622058,-0,000430247356261945,0,0147937143870539,-0,00150642803860924,0,00736947911931239,0,0120155201893336,0,00463885082866332,0,00371371739111557,0,00456109352180874,0,0178699038694423,-0,00963872246153585,0,015192767529,0,0167152381851807,-0,0093257442122484,-0,0122194806588855,0,00922201930130099,-0,00160817707959822,0,000400666582329659,0,00121776166817357,-0,00378436972768568,-0,0114280515860028,-0,00693196506914169,-0,0137534099082514,0,0130886145308512,-0,0190535291939791,0,00764278592942954,0,00507965391746966,0,0115309022289694,-0,0034694136956564,0,0031874650849892,0,00675641077068727,-0,00458858123926485,0,0140604789809453,0,0169332679584957,0,0137161547350928,-0,00291249029196849,-0,0044640376165094,-0,00014667869584716,0,0156294916227114,-0,0106997748086436,-0,00825070089516604,0,0162458230214548,0,00692829995807256,-0,0140354848224708,-0,00719799606273025,0,00342930467531458,-0,0162483774610211,0,000732760553121646,-0,0108236484523384,-0,0165734957165098,0,00757472177548814,-0,00582380512950259,-0,00866177237377679,-0,00980598325694729,0,0137987801191735,0,00903461194937714,0,0181925639545793,-0,0172239987384947,0,0207069423594579,-0,00918330664580083,-0,0152944432004785,-0,00972601651596981,-0,0156647713300909,-0,00222497651001047,0,00232874863965437,-0,0140408806598129,0,0107417186039559,-0,00775609351968686,0,00146917263789564,-0,0183629306600922,0,000677378519726368,0,00412138276627245,-0,000663564740343406,-0,0153910869181651,0,0148501987177237,0,00514183013932438,-0,00694173500834546,0,00503974331432314,-0,0105116660462201,0,00455773761085965,0,0174305149833351,0,0103301846781289,0,00422241509246766,-0,00742116971767879,-0,00149947862234124,-0,00571785737148017,0,0162583853509985,-0,0134572210082562,0,00866157243880429,0,00691000441416422,0,0102066276783509,0,011413121744299,-0,000977827132056519,0,0136555249833436,-0,0117719487212243,0,00660480922906627,0,0116741009155209,-0,011349469869922,-0,00660169472553918,0,00490243485364644,0,00270079940740465,0,0113567415865691,0,0183168741123313,-0,00887364231991379,0,00164103345798797,-0,00277538505190118,0,00670668965479931,0,00984267425665402,-0,00674001682785714,-0,0168484979814332,-0,00727946862794739,0,0071447990214627,0,0070452701749763,-0,00313673989283879,0,00416444719433531,0,0160521140591324,0,0113115176508319,-0,00204387463410451,0,00308639065135068,-0,0175331787474684,-0,00387883832649942,-0,0132172969053877,-0,00725082373722673,-0,0173381744249211,-0,00343401704960825,-0,00390762862406874,0,01691215151581,-0,0122190961566591,-0,0165708720200116,0,00965362225821368,-0,0117508549145103,-0,00577601114420835,-0,00587930650444846,-0,00352487735044734,-0,016689287014372,-0,0105498101600827,0,0142019338444883,-0,0164057172784693,-0,00063845406451747,0,00902838443468562,-0,0132835488298519,-0,0177521663114196,0,000882761981966372,0,00163057018733252,0,00517888993325265,0,0107952239672959,-0,00172439050537037,-0,0108477228695448,-0,0176625920658983,0,0138069649789012,-0,00949411201943234,0,00527683948752555,-0,0154285778026923,-0,00726849209785489,0,0116004420066994,-0,0010599692669484,-0,012475902032799,0,0165678245043838,0,0136096765346306,-0,00685457160910513,0,0165216937568949,-0,00820644553542591,0,00711269044498885,0,0105389313732659,0,0174808128847984,-0,00703680485237733,-0,00538075481099565,-0,0183753026725102,-0,0122137006116254,-0,00120354329918398,0,0012371825173793,0,0119747171445611,0,00449472680904799,-0,00668757294333593,0,0178567379962183,-0,0146137409004066,0,0170119825334026,-0,00834867094254357,0,00743997531154571,0,00354178663771955,0,0178168734439243,0,0174694617067351,0,000865548528400561,-0,00606591224343996,0,0139015436799023,-0,0133958455734211,0,0119649241656028,-0,0138075756895562,-0,0151288256344011,-0,00433347864586941,-0,000342890952715106,0,00690720742967407,-0,0109566164987438,-0,0014235267700168,0,00530128276640079,0,00732095083739471,-0,012090945626748,-0,00948978056749898,-0,000520875517517962,0,0178138257115247,-0,0131259855654204,0,0121768550531432,-0,0150222893196947,-0,017222509953682,0,0133046029618823,-0,0116960844644545,-0,00157397688371845,-0,0167001669834613,0,00426995722157101,-0,0185242059902208,0,0109943696237304,0,0120234951348577,0,00852920920626269,0,00656314179861452,-0,00566799612049071,0,016419628457333,-0,00258774987070305,0,000185261581709019,0,0182620280236043,-0,0150074758255522,0,00126216761526448,0,00904321573581017,-0,0175485265792315,0,0132217795911707,0,00768913876824642,0,0180480547117181,-0,0140177914723376,0,00200878393434558,-0,0107854545842845,-0,00975687324740688,0,0133545722027653,-0,00320966706508711,-0,00970670417214196,0,0142426453694024,0,013917830969444,0,00657575563429299,0,00857840402372363,-0,00215481525721308,-0,00173293263251772,0,0135173406438002,0,00827067392267947,0,00294720985792624,-0,00569369244214062,-0,000391744200862937,-0,00426940965491984,0,0108114051823138,0,000144157917608765,0,00521515605366679,-0,00661956610795512,0,00121219194493745,-0,0140442620834231,0,0137828801124539,-0,00596037661771032,0,00814929034892922,0,00961445097629096,0,0113501474120626,-0,00960731869369305,-0,0158944237797596,-0,0182168004049811,-0,00815049410049907,0,0173070348436396,-0,00845282941031842,0,00815048330829368,0,0152171436307933,-0,0159209799582588,0,0183740275602173,-0,0126567687406912,-0,0113567208450626,0,0152792199189793,0,00611456713020427,-0,00978187694597403,0,0151754173419421,0,0137651008711943,-0,0114089700567563,-0,0127783747096239,-0,0153145338564555,-0,0163117376832571,0,0181265337728559,0,012032836874898,0,0139303864646768,-0,002061112100837,-0,00484492189821235,0,0118704185995585,0,00781095163158996,0,0138209885178904,0,00397571945085819,-0,000848279240480161,-0,0187726031536818,-0,0126174626187699,-0,0183767187261872,-0,0132096939223557,-0,0153242970500211,-0,0135553990179415,-0,013043336587447,-0,0119605669210447,0,0128034266915065,-0,0130440679189547,-0,0160261708267596,0,00323209265811569,0,00472758043573523,-0,00868002356432159,0,00284946495920226,-0,0107333727862689,-0,0129655506207028,0,00240655484474739,-0,0168744752064039,0,00177413043938726,0,00297460475852233,-0,0143422788230053,-0,0118515586455796,0,00919832044624848,0,0131645738994467,0,00376582315832235,-0,000716473442481142,-0,00851763400726563,0,00486548993877668,-0,0119698881829657,0,0142965179547789,-0,00440489977012857,0,00937069744273868,-0,0111142840566943,-0,0065357465381239,-0,0113742633187505,0,0190051744073435,-0,00173045089805653,0,00160426910544713,-0,0147874101995771,-0,00852975139823583,0,0170566608561644,-0,00203681102723443,-0,00788062566765979,-0,00398234285876687,-0,00603902149953665,-0,0183679488719981,0,00643252938884705,-0,00673447739453871,0,00657397745710539,0,0110036516190074,0,018419038651751,0,00591539541653631,0,00546122989439032,-0,00486943805596053,0,0176423765598337,0,0110440832029871,0,00999329374835976,0,0078223686479843,-0,00126217934040897,-0,0114863894407959,-0,0183719051937266,0,00036723727624635,-0,00703559109557725,0,00355442002451774,-0,0177634352470751,0,0107199216374563,-0,0140164578158645,-0,0176323678051983,-0,00979101919688355,0,0179208052307662,0,0181084063170881,-0,00392739690054505,-0,00299629013551147,0,00239632573337612,-0,0132481655214709,-0,010215508498392,-0,0150530360839918,0,00641631287160138,-0,00745504772281732,0,0155440227209425,0,0175985877303592,0,00206727936652449,0,0161776193297566,0,0126223328252464,-0,00454834912598068,0,0060429818372233,-0,0167406847826382,0,0156900377787379,0,00823539941573566,0,00355225838897952,-0,015606708420415,-0,00917947392301073,-0,008271585408464,0,0154812351660291,0,0110495622612884,0,0130953366164971,-0,00334426963901015,0,0149923640621988,0,00110701138587517,0,0173866485344063,0,0107227253059835,-0,00215161654882322,-0,000518211578111517,0,00731753542404075,-0,0107996180613511,0,00712664183540015,-0,0149250568365058,0,0149943875471738,2,77002812061412E-05,-0,0075699198111718,0,0140952965126128,-0,00992876266339224,-0,0142932722594432,0,0165925306480242,0,00963598680367401,-0,0134368957496053,-0,0153874539700714,0,00674043421508544,0,00403900403613767,0,0118981376064027,0,00111578415236395,0,000413297678609045,0,00782310312633062,-0,00900649073101981,-0,0050340267305463,0,00228177197010458,0,00646817108975412,-0,0165073400931702,-0,00653051370917149,-0,00481589402989242,0,0145418651623907,0,0168889787692064,0,0132285484083589,-0,0148791872321166,0,0119459916137673,-0,0181784843949588,-0,00579427054945317,0,00427041530803262,-0,00785094916789865,0,00518625604739828,0,0128300444201577,-0,0175802213333006,0,00457883404884477,-0,0145983653044325,0,0112427726346947,0,00893783187907318,0,00360149355655891,-0,0174168795115335,0,0159972609872545,0,00541613569231628,0,00757039410171002,-0,0146880484027388,0,00911693298622782,0,00192350566412656,0,00210760550557951,0,00293131049553361,-0,0117361085885134,0,0116649030793037,-0,0147137799041719,0,00549567683571663,-0,0117595567612722,0,00011821093001394,-0,016667188403894,-0,0129311180912208,-0,0105551284696571,-0,010471201927796,-0,00146521767381694,-0,012042428139313,-0,00536564010989345,0,0103421171523442,-0,000863438965094297,-0,0104461142586759,0,00669415192028021,0,0123994766343822,-0,0159737520175011,0,0160118942868633,-0,000337903892805955,-0,0064112184684324,-0,0165380556335171,0,0178546561209287,-0,0129547287271079,-0,00397268288821315,0,00542196603802767,-0,00127178467515958,-0,00702640634548567,0,00878182620538389,-0,00719904048159247,-0,00128788317102618,0,00292073744110685,-0,0108237500138833,0,0151416832486926,0,00259957938739075,0,00232783122703099,-0,0113712384780542,0,0107691589697308,-0,00425442839749867,0,0114038680005279,-0,00304661486911778,-0,00608706012922827,-0,0151317123382805,0,00362526662480362,0,0138176538159015,0,00863192273216109,-0,00434625496835897,0,0129469946716524,-0,00301364692962893,-0,00890033976205881,-0,00950990890547317,0,00352976683621192,0,0130164096616613,-0,000546323614460141,0,00726720511409954,0,00427062408692648,0,00365919455327779,0,0155006017578973,-0,00125323829127916,0,0182541493970986,-0,00923867072058292,0,0173463247920816,-0,00568009370227051,0,0100546238773623,-0,0150329170235656,-0,0136694626007495,-0,0115251353837,-0,006393180604133,-0,00846916680418841,-0,0138379997382732,0,00793114682605547,-0,0146280859910454,-0,0076756403310712,-0,000394257185696842,-0,00360768388408858,-0,0176946155118025,-0,00570780033853679,0,0126671339027517,-0,0013423422055207,-0,00647695105727432,-0,00888844838094839,0,0147434314226507,0,00544311581824437,0,00680923770875856,-0,0166894001431269,-0,00701303112672292,-0,0064738837298635,-0,0128336556985596,0,010652432972501,0,0149864640731208,0,00352622820861907,0,0110656483036488,-0,0038499663214466,0,0169162469504809,-0,00781552909152234,0,0117593059079993,-0,0112565445280923,0,00370546292505481,0,00751408650737243,-0,00118272519326537,-0,0182590735235672,0,0146248062784418,0,0116545262969739,0,0166147099225606,-0,0100330635787055,-0,00199522908080531,0,000859461603774865,0,002842243877097,0,0106102061070033,0,00083376538210321,0,0146928046956618,0,0102000108163177,0,00557275563737525,-0,0122815317208176,0,00799983920161771,-0,0156340717753644,0,00928395455142622,0,00858378400234049,-0,0125871083369664,-0,00438008555311975,-0,000389524921454912,0,00560314485246475,0,0171083716729376,-0,0030646089068272,0,0128043653976452,0,00910795438243715,0,010010894829427,0,00402326338447126,-0,0113283316681648,-0,0162486976949252,0,0127005873836511,-0,0174789541324922,0,0119833616438745,0,00891173159149803,0,0173343969841358,-0,00703603082626514,-0,00835181529262686,0,0119350222767205,0,0177811958319478,0,0116890861291381,-3,97736707232269E-06,-0,0150206973247671,0,0043025919057525,0,00546437063687417,0,00857025358098945,0,0080453320891541,-0,0142829425477096,0,0136546014550546,-0,0110225796008564,0,00575566752361573,-0,0179419989016164,0,0164598719178706,-0,0155356570243952,0,0169208544753354,-0,00445579335863872,0,00920801494384416,0,0091564476989311,0,00755426981612019,-0,011755595643417,0,00975890049804254,-0,00369850238887343,0,0134182971199631,0,0115129455759199,-0,00225259030800921,0,000257247801743798,0,00688144230388965,0,00597527354621623,0,00579939282209443,-0,0116047332751269,-0,0109022201366883,0,00102114957379411,0,00174358597525992,0,00299747463154459,-0,0161871318998586,-0,0175695903495382,0,000892226447009811,0,00427235885526099,0,000103693458983315,0,0135117000658303,-0,00892258612830472,-0,011081482973828,0,0177237589252213,0,0141709027882136,0,013896571492141,0,00975780819436407,-0,00780690912297889,0,0122536944486722,-0,00518568643676605,0,00766623271296041,0,0186668520435867,0,0150509971393538,0,0115371014295542,0,0117608970962328,-0,010740655794626,-0,00659813777177816,-0,00798339729177417,0,0128016370795461,0,0121589567799088,-0,00389648523153282,0,00127391784165324,0,00545013252515222,0,00256910804529875,-0,00482818387470158,0,0148024878502092,0,00859947701300504,0,00325927795130722,-0,0139370975257486,-0,0131207570071765,-0,00539088529963941,-0,00136023401032779,0,0109672906648776,-0,00922040551629161,0,0165982690570083,-0,00546464676959259,-0,0143819595823596,0,00265548973864805,0,00389503287093799,0,0107706579020281,0,010582868109388,-0,0112156559730382,0,0178897249960184,-0,0163017110083057,0,00781017594158316,0,0131991789538132,-0,017296202970049,-0,0100742653914078,0,0103006387611491,-0,00390180878562431,0,00652117657807071,0,0167438340042638,-0,0122107172717856,0,00720917580078318,-0,00786974210138812,0,0111496641636004,-0,00510137256094436,0,00991558636429952,-0,014812760080274,0,0134717191839221,0,0125500893241929,-0,00951267897885215,-0,00562085673014299,-0,00518730343898989,-0,00147138269462718,-0,00725911087891187,0,00520416868592255,0,0162661750949348,0,00386127708925487,-0,0106533510315883,0,00140646390655462,-0,0129127136957825,-0,0151156330118283,0,0143857389769275,0,00861006672170806,0,00228403276657797,0,00852281965670477,-0,0139388275460949,0,00415468197756273,0,0121389517686656,0,00290038553709939,-0,0140122718545262,-0,0127947150850668,0,012393643717621,0,00904819097630424,-0,00695467802722529,0,0150074595485261,0,00901257654084079,0,00200488194004977,0,0107213592740626,-0,0123430141479966,0,00490764543621624,-0,00960445825177273,-0,00526593987777133,-0,0130642929439694,0,00944726438264395,0,00321377940174569,0,0165583340755842,0,0142843135976077,0,00605229060530074,-0,012418388608246,0,0117517858485163,-0,0148091899873345,-0,0163181095754169,0,0108620719050869,-0,012825529512933,-0,0118232114101483,0,00589489876763653,-0,0120720077960361,-0,0117895710288444,0,00430565349454921,-0,00879944193647013,0,0155352436807761,-0,00292106284915671,0,0116152357142362,0,0186988927584301,-0,00877177418588508,0,0178662144249248,-0,00438253117853869,-0,0166387194819823,-0,00264926886206424,0,00559531476919067,0,000279413381849028,0,0183007927563411,-0,00689298680910681,-0,0183875119713909,0,0147428854782302,0,0107444415204976,-0,0196337492774307,0,00754688599343385,-0,000222757615385076,0,0103500380039177,-0,00768771560462276,0,014718673520487,-0,0061001977610639,4,01233405124669E-05,0,00180171650581884,-0,00265950934977737,0,0108933663656553,-0,0019720842685423,0,0119112986656502,-0,00816861805511982,0,00531559183811558,0,00227513354296171,-0,0123244666582367,-0,00703048828492935,0,0092593264238157,-0,0165761469358434,-0,00790547919414165,0,0124338628545339,-0,0043940171801358,-0,000476349279976616,-0,0151578225224578,-0,00763760380675995,0,00876325874333446,0,0162522066792239,-0,0185930980092105,-0,00994216773730751,0,0152285265895544,-0,00753125692403692,-0,0113448066422505,-0,0153069455035901,-0,00739144760882068,-0,00435453630528425,-0,0132589340745312,0,0122747861851997,0,0171345818911313,-0,0157486926347421,-0,00863577615253885,0,0160165528214217,0,0150509318362682,-0,00399393263498343,-0,0109230348761272,0,0135971031654713,0,0140427599424047,-0,00505074228989446,0,000504410403744788,-0,00165811550999496,-0,00619733581120261,0,00267207986741584,0,0130009135568467,-0,00548894561911429,0,00631183465148139,0,00401201374486869,-0,00048464609050156,0,00906102682221884,-0,0158357812078036,-0,0133065734948475,0,00684030190966175,-0,0138314767121025,0,00331311636188024,0,00693470624552151,-6,64828527977328E-05,-0,0152836221378308,-0,0170255024299543,-0,0129479665827431,0,0177494125870332,-0,0125002138987953,0,00715831537088736,0,00372930003772467,-0,0142825007725002,-0,0137245829063684,-0,0170306473625791,-0,0153429631230577,0,00874399420409926,-0,0064986926102347,0,0113925925872961,0,0019260490378124,0,0142528725556357,0,0105836954537565,0,00175035991447359,0,018351290018686,0,0161504992993048,0,000355435913182119,-0,0089053753443639,0,000717922197119027,-0,00896253266694888,-0,00538477693586635,0,0141736585523067,0,0143143148334264,-0,0151989312568505,-0,0179579364149443,0,00970312214512002,0,0126096973703373,0,016538555883938,-0,018124852218668,-0,00736067337130444,0,00698701465718257,0,0144628720172627,0,0157668508530517,-0,0118965794460277,0,00702856083786209,-0,0153713516974294,0,00992500563009925,-0,017442988492806,0,00953595247150299,0,00201180520315462,-0,0093060150273301,-0,0101476410358723,-0,0167287098350361,0,0106518112009813,0,015337730538847,-0,00567323189181674,0,00242406223994899,-0,00533365441579447,-0,0095836070009563,0,0124703829539143,-0,0188058870297282,-0,0152859583240304,0,0150144400399516,-0,012241918376723,-0,000417103388937773,-0,00293356538172076,-0,00618492556850249,-0,000269889188072061,-0,0096317944840568,-0,0100646340254224,0,0125757405156935,0,0141899922724323,0,000706022974722426,-0,00274542609859095,0,00259252097560064,-0,018847622180708,0,0128322673916728,0,0128684192711332,-0,00921453113330919,-0,0131037124555103,0,00794818604461092,-0,00700352276771244,0,00224084156404432,-0,0075647073689026,0,0115875128227943,0,00631190152684715,-0,00364602934076551,0,000635283259484109,-0,00422953272257338,-0,00801803518041722,0,00488144975074402,-0,0181953710187521,-0,00240044768729422,-0,0184966384532627,5,6622371905829E-05,-0,0131908263056131,-0,00627712821803852,-0,00337815951090549,-0,0167071627708503,-0,0179152111586802,0,00870819963056152,0,00825368201162114,0,0182053686699409,-0,00151845484676373,-0,012810340120799,0,0106710050862272,-0,00333365187473912,0,015118388295737,-0,0172231556269116,0,0183783818295953,0,00472556562090039,-0,00429224807286155,0,0112511452786827,-0,00980976928981524,0,0112151761133282,-0,0167302627222041,0,0015158807990213,-0,00817588913016477,0,0148492963167132,-0,0132242255181412,-0,0103828851555638,0,0101524841843739,-0,0107416179842904,-0,0178362727879619,-0,00503746933134975,0,0162813134056541,-0,00608665490329775,0,0148462471325333,0,00512464583752642,0,00967743386629881,0,00952167067168066,0,0147406307094176,0,0161930321822166,-0,00611091549530191,-0,00434747521294499,-0,00852466390724743,-0,0105851962125926,0,0152760458775087,0,0116004578341874,-0,000960769712542605,0,0111329648053418,-0,010796044829518,0,00473518651109508,0,011424012814197,-0,017503754419846,0,0146361030950492,0,0126443377527436,0,00739078047353821,-0,00572230358530235,-0,0126990509951561,0,0182799792258522,0,00318621640738511,-0,00252155311010419,-0,000507782013423486,0,0119796799377486,-0,0183096480833701,-0,0135094756648796,0,0125207023396684,0,00465870629740313,-0,0184679117598053,-0,00285049583267966,0,00897826969312839,-0,00193525989771789,0,00712635874722293,0,0031818119227452,-0,0168570380517577,-0,0108745347650475,0,00053643781258997,-0,014642908029417,-0,000551154587139374,0,0174243287160406,0,0135971149863469,0,0073491831358856,0,00848896589776745,-0,00137346095138316,0,00772831383317721,0,00344629867957522,0,0166868111904831,0,00303938445975508,-0,00289172784350696,-0,00791704285256524,-0,0138411337651104,-0,00731501197953272,-0,00511679863879699,-0,00282423538477286,-0,0147115944159605,-0,0029042159211381,-0,00730926508869102,0,0177469235532632,-0,00884716268587871,-0,0131107063166262,-0,00955363407196039,0,0165184441366113,-0,00119485525890911,0,00543618288778896,0,0043583150978544,0,00764267290266196,-0,0149180673077747,-0,0134664499769794,0,0142060565377981,0,0124260651484617,-0,0124684583147362,0,00227208289452232,0,0121804306887605,-0,00318570160291733,-0,00941474400483459,0,00352328558072608,-0,0014466733843525,0,00311394278165741,0,000107500472068253,-0,00437161314081303,0,00441020691249307,0,00371180547517858,0,0133767589319062,-0,0181049203473817,0,0189199047145605,0,0151596018803303,0,00603007600015753,-0,0135167805810751,-0,0118882127388435,-0,00772219626751637,-0,000981872494024746,-0,0149635453926379,0,0126060450319415,-0,00837188949841311,-0,016629821453436,-0,00242902190529161,0,00784282808003598,0,000219465361302135,0,0106403501647221,-0,000670965297035161,8,86353963087081E-05,-0,0032360444168559,0,00856079147125414,-0,0152659131955838,0,00680386817485444,-0,00467980312581178,0,00344474717844791,-0,00840709664242988,-0,0100826413476283,-0,00194228670228327,-0,0107551524886167,0,0172293957299652,0,00898997598978217,0,000177502416285465,0,00447723269847348,0,00718202353566154,-0,000265795512591051,-0,01764369549013,-0,0123128590793432,-0,0102160663635648,0,0186451059142222,-0,00810124366926084,-0,00877870704403027,0,00122309627983576,0,00596653313981243,0,0168242389310341,0,00322975886797778,-0,012114822716562,0,000741733441975861,0,0129350639193156,0,0173734523054336,0,00381712601271746,0,00771565913259427,0,00884164442235864,0,00973944822987475,-0,0121435659797101,-0,0129663281981979,0,0114988874325257,0,0159452608765052,0,00539485945537271,0,00688438549916994,-0,010984085365069,0,0157301068205489,-0,00949006753623007,-0,0104703574946855,0,00972898516862715,-0,00310943500440287,0,0102437412075827,0,0109782804997086,0,0106492439442715,0,0138284304835057,0,0104882539601898,-0,00322700151744586,0,00591680252847646,-0,0142414741006968,0,0177244751594353,0,0122653389931808,-0,015751874800705,-0,000465791888989141,0,0089922480236043,0,0161099930825674,0,000517036022091409,-0,0128573311865298,-0,0170450266656185,-0,00423275226067971,0,0115072280899981,-0,0191509567200316,-0,00521479899464858,-0,00595347979251436,0,0128784595474101,0,00659906594198039,-0,0110637874432048,-0,00685948062892209,0,0123871337396337,0,0134290793275431,-0,0178318159899474,0,0017626771513315,0,00769458069229325,-0,00462926263503682,0,0111950220422364,-0,0126104176486586,0,00056937453422293,-0,010506948887287,0,0114077883130444,0,0143729011426874,0,0162510919349896,-0,0153426101918538,-0,0143273217976032,0,0118495340887112,-0,0122481910986452,-0,00237379986194649,-0,000961383512124789,0,00283124387842627,0,0078656872214826,0,0090553087724493,-0,0159987975235559,-0,00508737878144436,0,0119526649576967,-0,00732998399382913,-0,00496665909611548,-0,00799791772082556,0,00538977864365801,-0,0148078475291251,0,015595784431181,0,0149683655985459,-0,00516476810448021,-0,0176361290186493,0,00677024435223326,-0,00715205063156084,0,0118077239640172,0,00634149333501646,-0,00883718449797559,0,00266448171847565,0,0090341202391207,-0,000783344986243405,-0,0172498519712087,0,000549757236314649,-0,00354519774704177,0,0050329592054545,0,0131373032580189,0,010012093713736,0,0125375903487957,0,010397873832691,0,017273166755058,-0,00787817162112269,-0,00939081193656937,-0,0139623273444836,0,0118752894142102,0,014406050002134,-0,00857687633487579,-0,00730693895219836,-0,00951430211526773,0,00100483406269704,0,00613128031685697,0,00684986404699104,0,0184432210445604,-0,0105022888785396,-0,0028941400531974,-0,0161333488439394,0,00340976900180623,0,0124898865521032,-0,0131858975899225,-0,00109693899368843,0,0156400413381511,-0,00629209770841319,-0,0165941386777472,-0,00589570359608377,-0,00707057450477876,0,00407295889793581,-0,0118974092422647,-0,000626480661428066,-0,00585462068688685,0,00603869613768263,-0,0122481115328799,0,0157532764312514,-0,00749607636880357,-0,00603729750077726,-0,0187857328868939,-0,0119864909782252,0,00115603074619722,0,0166053059135869,-0,00587822854443442,-0,0159146846405387,-0,00379375808433501,-0,0182194379712757,-0,0115864035739477,-0,015727340461145,-0,00940757726608644,-0,0152686103007895,0,0183649817992428,0,00903842060226774,-0,0101295023525632,-0,00668616817925518,-0,00428266028258678,0,00267792792966575,-0,00830733342006585,0,00592512066081023,-0,00664648003801274,-0,00812881974951005,-0,00800421850545989,-0,017490372145988,0,00974560857215282,-0,0083751883661439,-0,0144037220707545,0,0159670993649292,-0,00877438394508286,0,0181775070094006,0,00783104978128401,-0,00524875053996336,0,000985760418982936,0,0176453693491455,-0,00498557319583957,-0,00483382503984212,0,0152638623298349,-0,00355284747141644,0,0124972675890817,-0,011201938314799,-0,00927144948589526,-0,00434582183445426,0,0160511331469541,-0,0108231218655535,-0,00415109508301438,0,0186787618692372,0,00191650060248071,-0,0147908429804326,-0,0139385969193209,0,0140536340504168,-0,00786305254576316,0,00490174073658211,0,0101352142097027,-0,00088337066759099,0,00575776076540956,0,0093332304964407,-0,000587010619534594,-0,0126803640392227,-0,0013389132482493,-0,0183832902616772,-0,015280287293172,-0,00804959814331173,-0,00817708903849199,0,00293681498693001,-0,00416317359597574,0,0105837598722958,-0,0117827407975024,0,00330866934939997,0,00648092873887753,0,00869547174981667,0,010917545115731,-0,0143051784895314,0,0113237919917842,0,00491731840982228,-0,00584525989718235,-0,00900860646065138,-0,00674441488177985,0,0130261472071998,-0,0106276477686851,-0,0137635607108606,-0,0134619719540654,-0,0148923852689041,-0,0028382801864514,0,0149529679696806,0,00375262573138417,0,0119652846141795,-0,0131235905805921,-0,00706035090505832,0,0126663597011207,-0,00107812330621405,-0,0173791912668811,-0,00759246162236787,-0,0150436461920888,-0,00180959638713444,-0,00870421873037856,-0,00463517001073684,-0,0161589581332425,0,0178054580552193,0,0148415220256968,-0,0153885436084979,0,0113569859361034,-0,015191566833672,-0,00711263335632365,0,0170476463830115,-0,00554180990507105,-0,0106759961647291,0,00909229338020293,-0,00327866813232811,0,00186283884620943,0,000935487289790754,-0,00467701205566304,0,00778596361483874,0,013578338202395,-0,00544406551310309,0,0125067774028272,0,00446131714785678,-0,0113212699347293,0,00641093581258399,0,0151387689407113,0,000590529471182208,-0,00852805876270749,0,00163776488821319,0,013419478576379,0,0105429054846917,-0,0175502258241144,0,000537158637081736,0,0182304869999547,0,00590609450464587,-0,0113145178283499,-0,00959873425085977,0,00730027131433346,0,0153134211697815,0,00343946970138035,0,00667187435568525,0,00877481325977257,-0,0102348122078459,0,0054219028463182,0,0144800056640467,-0,000896505620211548,0,00956214798775403,-0,00385701812232418,-0,000512262284740456,0,00686673758472697,0,0180718893413107,0,0110954227099926,-0,0102017464832959,-0,014172484398401,-0,0075318724732564,-0,0171460235701535,-0,0133271421389456,0,0169719032202331,0,00493638030632515,0,0117506968123982,0,00326161922837268,0,000643201402225782,-0,00483367452330597,-0,0158447761100898,-0,0161965497812046,0,0127479076555312,0,00194558008305394,-0,0176083840667836,-0,0137096348589503,-0,00074244247004533,0,0172960189935754,-0,00585046392994256,0,0110686273090081,0,0187124628329749,-0,0151765073731455,-0,0141338877983186,-0,0115987935279716,0,0131639496065801,0,0172026155867701,0,0178793176089227,0,00914642268704653,0,00304000529995656,-0,0174377781670149,0,00864494391155021,0,0170878340436078,0,00447324526684193,-0,000231684860322995,0,0149098236572488,0,0140827074857069,0,000705225989413337,0,00982177928349954,-0,00604805470856159,0,00315102897898305,0,013347830627202,0,00145207309150789,-0,0184981236732701,0,00847411451090629,0,0056170391185603,-0,0170563036055378,-0,00359277607203373,0,00848856544084855,0,000339235927801881,-0,0158605141887896,0,0160347533932221,0,00962103161757741,-0,000963072457371698,0,0185749461607138,-0,00401282024640888,0,0149842082579644,-0,0136815804880728,0,00156127043373125,-0,0169625709133068,0,00516850550361348,0,00313283502242141,0,00519116285075348,-0,0180653761394809,-0,0129347673956863,0,0157755890259564,-0,0014331513835678,0,00210514394546989,0,00252300149852331,-0,0185931604765608,-0,0121279624604587,-0,00400414084257914,-0,00593464883451899,0,0101664693548177,-0,0011605007702676,-0,00456427438148132,-0,00939148718837071,-0,0131184395007517,-0,014779707029891,-0,0123054366280087,-0,0154065256061006,0,0179238310714629,-0,0131948327949516,0,00553547593491833,0,00990051739664475,-0,00226128743011301,-0,0104152692558722,0,0176034950414569,-0,00419074598301919,-0,00980352634844408,0,00256640175525432,0,0142451879819144,-0,0118566011324104,0,0142592745705671,-0,00936795560314224,0,00884135938130114,0,000456165807395379,0,0142466077331828,0,00235836978993468,0,00473307841234458,0,0021614415743563,-0,00410476071471085,0,00743644777263107,0,00431523453946918,-0,0106356867368404,0,017773657676425,0,00876210660005797,-0,0186011969820732,-0,00631398003641865,-0,00809758035975672,0,00811956437364969,0,0122474362673669,0,00100435053731385,0,00572976317942414,-0,0141115433859214,0,0176840324160464,0,0159023345614386,0,00262378156591647,0,0117678692018877,0,00614864460288912,0,0126482923374346,-0,00336356878734312,-0,0175836919063145,0,00187249571929738,-0,00639745908953253,-0,018381230906285,0,0117616223732731,-0,0146560174325765,-0,0106547089256457,0,00970626029195185,0,0116553412118131,-0,0159523050742648,-0,0156997347118216,0,00358193115410273,0,0146824193951694,0,00923088470185785,0,0107158025591361,-0,00608635983502872,-0,00163166336258867,0,00781892818052127,-0,018421907300288,0,0179254867810058,-0,00158185629097252,0,00194712006172005,-0,01142224181719,-0,00459339135400384,-0,00603404673598003,0,0185379463911957,0,00184491062203124,-0,0117857853830458,0,00732919182163486,0,00468042882267107,0,00853908811160444,0,0102423213733436,-0,00277128996140591,-0,00475323734926886,0,00462326655604985,-0,00812881202269762,0,0188928593981375,0,0006256687481267,0,00158048613469158,0,00218138109920632,-0,0128712760257678,0,0134200554567711,0,0139137573474517,0,00677938878795102,-0,00891282910046971,0,0165908794965381,-0,00373408603874091,0,000632867118434378,0,00527699655341345,-0,00473460669211328,0,0111765505678821,0,000766249820445526,-0,00880329759863327,-0,0173909868451828,-0,0103674122463502,-0,00592459505734955,0,00124521722480255,0,0046262008955978,0,00914526199778962,0,0149500348724412,0,0124517389485645,-0,0118309298134573,-0,0155897854218373,0,0145570988952237,-0,00609073449282774,0,0141256432220459,0,0196027973831106,-0,0105136176398614,-0,00334802782389385,0,0141183988202085,0,0154294292155803,0,0126996019056362,-0,00177610050731874,-0,0149518755354402,-0,0105944830832843,0,0149274175243051,0,000652498940912313,-0,00747914961214871,-0,0151044591751045,0,00313955851438692,0,0025924367401257,0,00550657104189935,-0,00770030101906209,-0,000259738827867263,-0,0157161487483347,-0,0189430529627984,0,00133886221019845,0,00690052267432532,-0,00557684426234979,0,00475361595092171,0,00446722625544965,0,016892304763947,-0,0136644647122912,0,00945049332187215,-0,0117107417679757,-0,0126645398653999,0,00891440276660474,0,00393494650349559,0,00220818232243434,-0,00082935276822838,0,0168989676961894,0,00666143206043033,-0,0131632787611718,-0,0131315575115573,-0,00685529355394118,-0,0074748149757733,0,00260898930623656,-0,0056076545322138,0,0114686404716327,0,00965719786897247,0,00640256514499814,0,000909388526086138,-0,0015522947946644,-0,0181620697496385,0,00264855322192398,-0,00442739611572325,-0,00571277314379059,-0,00371680496498855,0,00780196647007225,0,00241191321345999,0,00483645704126313,-0,00994432232296564,0,00632995208362226,-0,00319314610253016,-0,00124791576299468,0,0135611475242393,-0,0181137458116886,0,00395428438585705,-0,0104712842501747,0,0070427482314062,-0,00206657489372099,0,0151098262082646,0,00111748698151317,0,00154897846672179,-0,0127392859161153,-0,0146744087985788,0,0174817473060291,0,00728271775172949,0,00650130498724739,0,00148671801568777,0,0081718660939013,0,0148190632006868,0,000103442381945026,-0,00255284705846845,0,0181782549647443,-0,0079815378960752,0,00517784914278613,-0,0137189930892391,0,0124396511939311,0,00672154106153909,-0,00677066998343927,-0,00754648603311996,0,0181015762258243,0,00844189367357438,0,00280686830285319,-0,0138924482278271,0,00084211620193323,0,00636093836032243,-0,0061553676978506,-0,00517530673935468,0,0066054936826456,0,0118498419002978,-0,015383087653173,-0,00266987208079834,0,0124733646449154,-0,00966505954179794,0,0175613935684353,0,000593788223783218,-0,00859086003680773,0,00283375654164639,-0,0167140262756051,0,00286984738705517,-0,00668201883471218,0,00993844465313505,0,0173777378330348,-0,0111660014986783,0,0105048327673811,-0,00894516600295924,0,00278487807200225,0,00515256481461319,0,00235030732382194,-0,00324314266593643,0,00859233404089861,-0,0104836902339778,0,000323280825977082,0,000136395353487094,-0,0147149401184946,0,00947041218225027,0,00467635168051122,-0,00589115719288695,-0,0185894131562341,-0,0131829252258606,-0,00692628765462617,-0,0048877617734481,-0,00578982887983279,-0,00435136429904597,0,00544660394494888,-0,0144635914682614,-0,00728221713369298,-0,00926570982654537,-0,00717647148786603,0,00186898837492775,0,0124729354710017,-0,0135184579603139,0,0105816858505624,0,010670135601665,0,00545944716122554,-0,00658327748721336,-0,00973010628701565,0,00733281659346554,-0,0030968009906174,-0,00754953636271584,0,00854090250082806,0,01315964272973,0,00534902734210005,-0,0123805736270278,-0,0156590846880498,0,00802770424478197,-0,0103688108315731,-0,0175070903176154,0,0155100269696862,0,0102153320778107,0,00472802377189585,0,00688616215244489,-0,00487213768086202,-0,013842782062852,-0,0084615140878906,-0,00700961703007724,-0,0133575676067629,0,0120253410138057,0,00304515494312027,0,0166996993374721,-0,0124804776978749,-0,00212244726633563,-0,00180475531713444,-0,0102884599867842,-0,0113360599464044,0,0183440368975647,-0,00553919428448011,-0,0107036980837733,-0,00735125968764918,-0,00715213247243463,-0,0150883245102667,0,00911108500234385,0,0140034102162581,-0,0176919578996419,0,00799213649113518,-0,00535273340291673,-0,0128121901291846,0,0114095332446213,-0,0185603472280432,-0,00109282794828032,0,00508403410223644,0,00727406048864631,0,00644028894244416,0,0163573749298707,-0,00218866607790531,-0,016221886633702,-0,0103469792336223,0,00880764168882842,0,0128719189375468,-0,00894072999516514,-0,0119947633055557,-0,0142362954112951,-0,00775066359439456,-0,000819179133094668,-0,0168852504572294,-0,0113378010440557,0,0156587199446236,-0,00934515351041212,0,00617580371132415,-0,00258941881152507,-0,000883359335407905,-0,0186159368426567,-0,00251364428331556,-0,0168716771618435,-0,0104946198148996,-0,00985513989873559,-0,0105734874964465,-0,0123385434507935,-0,00888000524521311,-0,0121218429802147,0,00891514351578228,-0,0107491879167497,-0,0033268694968898,-0,00408822337039602,0,00140838115597213,-0,00398197557489227,-0,0171327629416828,0,0147221588672737,-0,00459948942241536,0,0164275797894933,-0,018099294213755,-0,00797631390342953,0,00311615652884285,-0,0105012692852084,0,00420274319807701,-0,00702356393769132,-0,0147882689636745,-0,00515462884623033,-0,0101721100806562,-0,0177214823802548,-0,0105336736194853,0,0159886405249695,-0,0161925897032151,0,0140357579098966,-0,000291386705950313,0,000423643880250034,0,00834026434179309,-0,0171397806061868,0,00634264374675331,0,0178485697508451,0,00133069957255152,-0,0150638564945288,0,00555750491179775,0,000329593310089106,-0,000107021646470813,-0,011861505310903,-0,00558584688498686,-0,0162903928730677,0,00400821936571262,-0,00146962556986323,-0,0156084233283708,0,0140751065510065,0,0123692160668835,0,0141056449642286,-0,00451250775319203,-0,0169276054416729,0,0166722422267166,0,0121406217413047,0,00705553839043628,0,0106235044870544,0,00827912881467849,0,0113891140082984,0,00195795931648716,0,0157649249037721,0,0105625271981901,0,0101036145993598,7,41839243156209E-05,-0,0175493219483492,-0,0133845395495285,0,00933093049070137,0,005035535759349,-0,0135335436797416,-0,00515387170101609,0,0091040377706838,-0,00988154385110231,0,0126261056262415,-0,00818481434206289,-0,00052578368901929,0,0113527591449268,0,0145426554397225,0,0157618571595578,-0,000228926505391687,-0,00555387600363785,0,0131910307399344,0,0119668179115582,-0,00368706750891237,-0,0088133941012833,-0,0165364105198117,-0,0148476060224029,-0,0119826341692985,-0,0130411013097587,0,00230197339722945,-0,015631247259659,0,0151187826909837,-0,00197006239738241,-0,0180978471535319,-0,0122273285845988,-0,0167125118877388,-0,000136106517983305,-0,00305904541148895,0,0181636964193527,-0,0175612794820975,0,000824488262809599,-0,00751913640907289,0,016526877142097,0,000287040752625482,0,00673323558899071,0,00427458036078284,0,0177374690979721,0,00945260636613489,0,00906290171128236,-0,00710636861716344,0,0156293485915433,0,00582090256608069,0,00428350833282195,-0,00317004566407589,0,017705239429761,-0,0116184470606872,0,000974085097642508,0,0173589880099821,-0,014302287260314,0,0072160702037271,-0,0172504414207165,-0,00990567825230559,0,0069162811353788,-0,00158834763083492,-0,0138694795904082,0,00412428040469526,-0,0156272969436345,-0,00898458148827226,0,00872424355815285,-0,00772272742158849,-0,0167906139769318,-0,000703942404591508,0,0114678995105858,-0,00538435410266413,-0,0147606843090111,0,00596825841025851,-0,0173573924051104,0,00601956688329914,-0,0128294383353735,0,000892157696883148,-0,0122657859794072,1,49128612904967E-05,0,00659373359231073,-0,00896962034660078,0,0152085904611887,-0,00664944255106409,0,00485531202975584,0,00147071779006961,-0,00981625275346745,-0,00533325488879838,0,0116888497413172,-0,013261576815318,-0,00318592294744348,-0,00414668745003638,0,001536044808039,0,0203066835948503,0,00778943534062497,0,00763964693815762,-0,00126274920583527,0,0114687194037403,0,0085290520263778,0,0168257184535428,-0,0164671276726732,0,0159199461897415,0,0128796067082156,0,00422064354902799,-0,0127160558346028,-0,00096254247081645,0,0100873890404398,0,0183107017822265,0,0130534640819973,-0,0114480071879946,-0,0163662675452588,0,0137660318367761,0,0153234892836442,0,01488593440329,-0,0142854946714959,-0,00747374032486508,-0,0132489024515555,0,0021211771332311,-0,00732679206628678,0,00156883722186343,0,00869033731946758,0,0141071000654607,-0,00321372748939777,-0,0167811283446058,-0,0105508701908188,0,00638269382694573,-0,00783050471973781,-0,00889579911286302,-0,00344595032067491,-0,0117787952930889,-0,0168350065929787,-0,00841177903853807,-0,0165616940915054,-0,00129886381358326,-0,00635840332633126,-0,00307035572598178,-0,0106952877820867,-0,00144507841402509,-0,00955529887256009,-0,00620956364458655,-0,0154900271373025,-0,0108318134769334,-0,00123399812338108,0,00988457278633382,-0,0062671321040978,0,00661115253268732,-0,0198579261759597,-0,00394155233638666,-0,00382488698435641,0,013721597490171,-0,0106436162358374,-0,0144401620859214,0,0187862118956015,0,00825061258235026,-0,00165772930536596,0,00842374326512779,0,00660805327229568,-0,00984290730720428,-0,00550431417955996,-0,0139669560346556,-0,0184316528945027,0,00146001676487421,-0,00508283525680688,-0,00229296202586292,-0,00645991003477588,0,00154910493304223,-0,00214105354898339,0,0156228868148287,0,00604288586164096,0,00932416291853326,0,00170133071190198,-0,0135130091483458,-0,00294871630973047,-0,0121300015285426,0,0138993251884988,0,000505500608761021,-0,005840287332583,-0,0021816125471698,0,00302651832976681,0,0178316132186073,0,0157907864077638,0,00235502709631959,-0,00466346528622318,-0,0164186623196545,0,00370834285405182,0,000190187007446514,0,0019145070018722,-0,00746198809746377,0,00202494055046919,0,00928545076840694,0,0159020678231248,-0,00789646441457991,-0,00408772127236043,0,0155411750604644,0,0127035840895729,0,0103326099809817,0,00583416100572099,-0,020417549963543,-0,0163795746970672,-0,0108761378633481,-0,00875406311868846,0,00420850981123796,-0,0144813786136023,0,0187157849295482,-0,00221709599269252,0,0185326722094166,0,0108996892672702,-0,0109669291687005,0,000937245714743479,-0,0187483238509197,0,0126779035602532,-0,0155990184938187,-0,00147363180839748,0,0105705670785416,-0,0148011945717958,-0,0105444835512193,-0,0155372775686868,-0,0140130133412807,-0,0098619173082144,0,00735262867456451,-0,0184122998723843,0,00407165143285033,-0,014443030042313,0,00958400903451302,-0,0135771876039775,0,0151575196590752,-0,00152653563851347,0,0058174224064399,0,015136703198662,0,00944425374387698,0,0161778357890444,0,00858177692906094,-0,0130641746051291,0,0124127988522956,-0,0146824823874086,0,0181556766708705,-0,0138695323277612,-0,0152544537505652,0,00284808280773823,-0,0144722870282974,-0,0121790454212937,-0,00616854092850672,-0,00127809150323647,-0,00526478928298958,-0,00948716609197116,0,0182357834065738,0,00583608008358309,0,000538850549016135,-0,0112980753144685,0,00706167430776115,-0,00968332269213274,0,00633884274559645,-0,00570359321726416,-0,0061722971892912,0,0172166357893084,-0,00816436412188594,0,0130292604962201,0,00447874967480553,-0,0176696722990409,0,0141605789433549,0,00795659393747972,0,00917585841572641,0,00426157828610359,0,0028698471723206,-0,010437509737418,0,012105591230947,-0,00323935684845141,0,0103869493518187,-0,00180780776203305,-0,00424358713255056,0,0119848489978301,0,0177957946032325,-0,000205887762739027,-0,00349040496576867,-0,00900028048906994,0,0130687372722076,-0,0187199083301913,-0,00210095280682009,0,0127159568168304,0,00353728304940721,-0,00176269121475685,-0,00130409911771107,-0,0118101026724872,-0,0122815193809001,-0,00298821553444605,-0,00436187641961969,0,00189839862682454,-0,0142331038839982,-0,00100006315672368,0,000997921598658767,-0,0143089885622756,-0,00856947938291532,-0,0121791639047905,-0,00786384703373989,0,0126041574185043,-0,00831906003072008,-0,0152947594597178,-0,00714721890447748,-0,0154399833254558,0,0074271953661147,-0,0147019153505394,0,0145712890440106,0,00343491092482,-0,0123074430972829,0,00843927933136923,-0,0122730665368776,-0,00284367797761488,0,0156758575728856,-0,0107300037209966,0,000936700411670981,0,0176890575950312,-0,000784353493512377,-0,00536310554360834,-0,0109356399135559,0,00745277519233923,-0,00797220158384935,0,0111405854639075,0,0151858301163052,-0,000844454889842938,-0,0112663723583174,-0,00432454003953999,0,0127424598024591,-0,0170037399000621,-0,00734105194112677,-0,00760650498955488,-0,00487945523935474,-0,0129181007911768,0,00580369642106881,0,00691626978009359,0,0142433146075666,0,00139744497520279,0,00209437656582115,-0,00440808797006805,-0,0103255770607516,-0,00232151690913178,-0,00521662075128614,0,0118750576432432,-0,0054172704443273,-0,00922943604366942,0,0136706353390979,-0,0083486305323463,-0,00347964653064419,0,00125117196085004,-0,0152435988876192,0,00549055831216063,0,0178483986131895,-0,00864263876418182,-0,00632157110331629,-0,00693035938830128,0,0110755895073088,-0,0153447834966598,-0,0138816786618472,-0,0140186202389223,0,00909441316670924,-0,0103330262068464,0,0189962948029786,0,00265264621640003,-0,00839166151285332,0,0145808586167062,0,0136868150146804,-7,31406810925633E-05,0,0181144748762392,-0,0146573585573579,-0,0166036725614877,-0,010882560351304,-6,28955256638327E-05,0,0183915216872868,0,00403247574338726,-0,00493740649246318,-0,00101041907420627,0,00434674322445191,0,0182512315559117,0,00298567796908916,0,0155362746710373,0,000665593709102757,-0,00216855861477939,0,015027240555076,-0,00120995118191365,-0,00700655840301387,-0,00432912777700077,-0,0154876593667758,-0,00304411062912509,0,00686760663884168,-0,00399871691995836,-0,0126532517948434,-0,0132595393306798,0,0179635916739027,-0,0107016699636301,0,00817924315618769,-0,000247906140702739,-0,00460307317514709,0,006291979183358,0,000280286676852407,0,00904768993434111,-0,0104141140236503,0,0114632855219486,0,0164434176375409,-0,00748082133633442,-0,000344897818999917,0,0172394861215943,0,0049930346184838,0,00996330768057552,0,0113487581733036,0,0143799214493701,-0,0170727810492325,0,0134340030926283,0,00725531507801486,0,00471013727544358,-0,00281700149404988,-0,00243998543121911,-0,0101428822541932,-0,0156117694059252,-0,00236395317733205,0,0154912984870551,-0,00697687431254037,-0,00264718343905153,0,0152259248251802,-0,000404933070792657,-0,00363734117822089,0,016958862152844,-0,0163479740502671,-0,00722247920199539,-0,014813454086747,0,00369450672991704,0,0176954114274719,0,00328270364298355,0,0109133087555252,0,0151128691197098,0,0180962413941736,-0,00756737133823354,-0,0151433705133157,0,0166993244083334,0,000646759679175371,-0,00504117443198923,-0,0085607064283706,-0,00202556099933578,-0,00849918297543095,-0,00634329214010332,-0,00347419835841209,0,00332687037327724,0,00314342748287924,0,00240627706755836,-0,0186327865974009,0,00216818979685963,0,0121031989123952,-0,0098847247444498,0,00879090224544296,-0,00970233426895074,0,011972824013876,0,00387703285544507,-0,016244167395082,-0,0016302817762544,0,00535389987536757,-0,0119249917177949,0,0171856155482734,-0,0146423412411777,0,0171153682772661,-0,0114596739543231,0,00988629292114743,0,0141903579680075,0,00181075255298233,-0,0140848153427903,0,00405466407963059,-0,00464059557695336,0,0151291309395829,0,00228588164600912,-0,00424497154384989,0,0031082696532205,-0,0145059169158034,0,0159857263495698,0,00436285950931674,-0,0140571499783278,-0,00846744661118412,-0,00862161438604917,0,000256315443529017,0,0118654102047669,0,0164978605883506,-0,0183421219831227,0,00296131547739824,-0,00781481820060652,0,0125041235267726,-0,0163245042395436,-0,00930717816245313,0,0148992819271026,0,010918776663141,-0,016143282481651,-0,00781352312522961,0,00673044077117731,-0,000156483371304919,0,00358002307361796,0,000636189725199028,0,0123604297989943,-0,00143927075235222,0,00215087395635607,-0,0142982222517406,-0,0176359816499091,0,0187826106045197,-0,00761547897340327,0,00545375115174903,3,36875039265041E-05,0,0103858635378892,-0,0044721964916268,-0,00638586973697345,-0,00729474094539724,-0,0126165206234578,0,0165488813911628,-0,00716497102318639,0,0103131389327155,0,00390682499519973,0,00959632963124283,-0,00729721377820326,0,0100201501067574,0,0144058329791478,0,0101273342288975,0,0104524967001684,0,0179276390401702,-0,00923821876054976,0,0111003487905908,0,0138232085273737,-0,00177740676970179,0,0135541813895387,-0,00346105530573697,0,00129489638376887,-0,00489371001953026,-0,0105384827474206,-0,0158628797433369,0,00470210933391562,0,0160148597043203,-0,013956647275183,-0,00738827810704269,-0,00147636367863793,0,0118568174317263,-0,0185564389392562,-0,00952139201735124,-0,0106076503905535,0,0155280465152729,-0,00574185732921558,-0,00480004138055927,-0,0114050087136216,0,00575214328745285,0,0152475055417901,-0,00461254449250087,-0,00705601250134335,-0,0183575318776226,-0,00459178623810995,-0,000317891861214165,0,00295854007940519,-0,0151743059140481,-0,00940462166067185,0,00241172078024119,-0,0123530486342217,0,00794330253080447,-0,00911702295488814,0,000979359829087809,-0,000285033422152352,-0,00622063504008582,-0,00774901397329966,-0,00362932287943688,0,00209523670733224,-0,00222515873859387,0,017277460227435,0,0136673917817969,0,018158551241718,0,0107516837587064,-0,00986184571909339,0,0120846092349198,0,0115702570875974,-0,00897432511749135,-0,0111615538379694,-0,0115683612299126,0,00865848081158474,-0,00605781519472786,0,00591263779250399,0,0156453855009214,-0,0170751503049822,-0,00754097760452547,-0,0181918614553035,0,0097890574052566,-0,00128085247663609,-0,00402441148266629,0,000951390040946356,0,000806150626462559,0,0163097886141811,-0,0099891286730601,-0,0162520846057646,-0,00240855038564617,-0,0083910806773348,-0,00598281591714649,-0,00611183017846067,-0,013592899766188,-0,0165878213615087,0,0101505875109598,0,016828598477049,-0,00379251260863072,0,0189739195707452,-0,0182877569700806,-0,00228647165721807,-0,00670355733816379,-0,0180181843963076,0,00969536450255419,0,00705220326291828,-0,00378173148857125,-0,00714576382020047,0,00406178451854367,0,0121803352725112,-0,00916017827430732,-0,0124116483270263,0,00415257389520996,0,0148532443447619,0,0123494002713905,-0,00885494540135989,0,0026663557547763,0,0110263382241928,0,00549673182472251,-0,00519039725318851,-0,00382318357820854,0,0188472508415472,-0,0106127317735256,0,000307770891079895,-0,0132068899087338,0,012472876382057,-0,00834842621069381,0,00951092261280469,0,00890911977988521,-0,00717700523404384,0,0129961803155838,0,00910394839877626,0,00348943640078273,-0,0171501841445764,-0,0130417242886256,0,00866674674788407,0,0142661977854383,0,00504670518089643,0,00139278874424002,-0,0115508494888701,0,0159307784947045,0,017748830447634,0,00294561105212362,0,00882336224600138,-0,00801532062767311,0,000756450627684228,0,00963821781528108,0,0136085367451004,0,0148812519150609,-0,000687136938914318,-0,0129523734016776,0,012699178519146,0,00806595857591889,0,005540757647525,0,00830956288121238,-0,000757063540027729,-0,00743219113893813,0,00303587480942721,-0,0186112468866419,-0,011424622483691,-0,00376261685556357,0,00904358088203418,0,0148825220897561,0,00255900727196434,0,0182120354770763,0,0137685156564686,-0,00938948916711936,0,00206834938328574,-0,0115029604824552,-0,0130299723544149,0,0190852000977729,-0,00434386402364804,-0,0158924397418108,-0,0131780337027216,0,013762600303645,0,0142082124826184,0,00924416026589953,0,00388686144257965,0,000943878607587318,-0,00988617503960196,0,00307410585764915,-0,00166610693424293,-0,0143274525947981,0,00270968147724059,0,00623787788985067,0,00085730554230884,-0,0142819446116239,0,0184424304118739,0,0182251216204473,-0,0154045984289738,-0,000545696761972239,-0,0179995168173488,0,00119267413287009,-0,0131012929382862,-0,0101339063548636,-0,00495834360092277,0,0129338292571723,-0,00583745271975157,0,0160725620740304,-0,0122508637339668,0,00243827279066452,-0,00120679856983903,0,0164303570940807,0,00817507255104292,0,00239005776422505,0,0147599901605989,-0,00783432154510178,0,0114877629751625,0,0148385470853011,0,0141658261228937,0,0123385937289449,0,00478359432732942,0,00879127773295434,0,00520746387267529,0,0167375859626132,0,00781047240159806,-0,0143795149191905,-0,0119755738247834,0,00455590336164621,0,0137795495889554,0,00867308141974532,0,012704392955557,0,00484256757363729,-0,0131097345470492,-0,00174809226805276,-0,00229134761589974,0,0160394113157945,0,0121557659879182,0,0103068406981596,0,01590185692558,0,00947199970502607,-0,016468268311661,0,056257502002084,0,0433867255677412,-0,0247407374564161,-0,0163559124703062,0,00722636692254175,0,032936068407516,-0,0233180179953258,-0,00656671066614328,0,0147193939102568,-0,022397215843579,0,0201034795301675,0,0279444342882566,-0,0147038909024834,-0,020865585252757,-0,00943628865654074,0,00540566370324594,0,0346334951715192,-0,0248655309753305,-0,00559436067291908,-0,0142966613226807,0,0280008863490381,0,0228854144015385,-0,0210890035161555,-0,0233198178986457,0,00279654751910697,0,00474024625777659,-0,014845034694685,0,0133744593993341,0,0171631727459722,-0,0478349283593166,0,0227097915590511,0,0325047296120713,-0,0232808460503936,-0,00328266003694035,-0,00336269694766622,0,0457924677134468,0,0327351257495172,0,00905387309595664,0,0138738509051629,-0,0363200848580362,0,0184103969428039,0,0321484472441693,0,00772427113729306,-0,0222611408423166,-0,0401505876316133,0,0278874896680043,0,0229929354857927,-0,00563668693532926,0,0163611904049153,-0,0065950472786421,0,0058247899870036,-0,00959708594673313,-0,0206761353066977,-0,0349815261906407,-0,015692882343002,-0,00137202677141061,0,0121077665496888,-0,0145856687112158,-0,0137469925484804,0,0164504061855416,0,00110064586533388,0,0206765960012464,0,00831328737634235,-0,0283223842792062,-0,00348212159901285,0,0178631693421306,-0,0391351134999788,0,0540165791114722,-0,0208993006157215,0,0157238976608376,-0,00711406781233257,0,0302657446729039,0,00719745922584702,0,0124539120269998,0,0395896470873916,0,0178785367576012,0,00595373104601697,0,00742938778512104,-0,0176737686688576,0,0283146613817185,-0,0121453377470569,-0,00777715289780829,0,0192941216054215,-0,00358732971600298,0,00758889187474899,0,0248543819747287,0,00967180294264673,0,0153912955402084,0,0157429491087044,-0,0442274977958217,-0,0247053164487753,-0,0169485092814752,-0,0037016063913482,-0,0062007392685035,0,0373244013958679,0,0053859442738177,0,0202870191936514,0,00696039067725191,-0,0135218164341722,-0,0158867158580258,0,0300989597229521,0,0298238019114435,0,000873334842238186,0,0227317950961177,0,0515803540638939,-0,00714085075830917,-0,0195741138350295,0,0157380970106166,0,00968053058802836,0,0149404377337154,0,0326124577767262,-0,00972851682646825,0,0586096277886878,-0,00249750988326044,0,0139093340397994,-0,0333487428743344,-0,00109951740309841,0,0417689688358937,-0,00234229609527685,0,00921077306259781,-0,00215585303668704,0,0192474191783283,-0,0141886951240668,-0,0119871812103592,0,0383172030313391,0,0118571742546866,0,0108568942898327,-0,104274480787591,-0,0137360935527206,-0,00186864737972451,0,0104472860671638,-0,000197670249569032,0,00612261204250112,0,0132612172679427,-0,0141310528298848,0,0140994018591657,0,0126340492073405,0,00848193778195363,0,00672051826251442,0,00136443812110256,0,00616644128370481,-0,0063401247663487,-0,0171671077343871,-0,000115716783623464,-0,00795294114653518,-0,0147611799527586,-0,00181951299628915,0,00733828465467806,0,0139964184236769,0,00130881235324524,0,00110187834101985,0,0124840846809693,-0,00234868984291975,-0,0155146271106123,0,00967491169325397,-0,0018437512014168,-0,0106630549987313,0,00950637474998467,-0,0100801726446373,-0,0175406286867742,0,0106733966742341,0,0065043790095697,0,0142590101361714,0,0134575331051817,-0,0175550177110531,-0,000591440612131381,0,000620138247350153,-0,004553025008211,-0,00958776387360969,0,000428523538521344,0,00182563076943864,0,0108235843310999,-0,000612278500979909,-0,0171377228528107,0,00917898296827444,0,0173534154399467,8,14461736890662E-05,-0,0129963061859588,0,0116356169932636,-0,00277569244870099,-0,000832126227786665,0,0112269758784921,-0,00607753987338828,-0,0162256628687745,-0,00150336379845385,-0,00365015466328051,-0,00732416476564094,0,0157992226668468,-0,0100834339903507,0,0102559452809918,0,00857133626244039,0,00327186438951554,0,0166182274332507,0,0018961691388782,0,0141001652695793,-0,00375991334476578,0,0172150235132817,-0,0046177617981001,0,0133658040458632,0,0172670391607916,0,0130155076562295,-0,0171303042848552,0,0126950983668664,0,000617291413667586,0,000265593266115493,0,00570273006554061,-0,0170082837064214,-0,00440185646822797,0,00559561204871302,-0,0101911554469479,-0,